{"learner":{"attributes":{"scikit_learn":"{\"_estimator_type\": \"regressor\"}"},"feature_names":[],"feature_types":[],"gradient_booster":{"model":{"gbtree_model_param":{"num_parallel_tree":"1","num_trees":"300"},"iteration_indptr":[0,1,2,3,4,5,6,7,8,9,10,11,12,13,14,15,16,17,18,19,20,21,22,23,24,25,26,27,28,29,30,31,32,33,34,35,36,37,38,39,40,41,42,43,44,45,46,47,48,49,50,51,52,53,54,55,56,57,58,59,60,61,62,63,64,65,66,67,68,69,70,71,72,73,74,75,76,77,78,79,80,81,82,83,84,85,86,87,88,89,90,91,92,93,94,95,96,97,98,99,100,101,102,103,104,105,106,107,108,109,110,111,112,113,114,115,116,117,118,119,120,121,122,123,124,125,126,127,128,129,130,131,132,133,134,135,136,137,138,139,140,141,142,143,144,145,146,147,148,149,150,151,152,153,154,155,156,157,158,159,160,161,162,163,164,165,166,167,168,169,170,171,172,173,174,175,176,177,178,179,180,181,182,183,184,185,186,187,188,189,190,191,192,193,194,195,196,197,198,199,200,201,202,203,204,205,206,207,208,209,210,211,212,213,214,215,216,217,218,219,220,221,222,223,224,225,226,227,228,229,230,231,232,233,234,235,236,237,238,239,240,241,242,243,244,245,246,247,248,249,250,251,252,253,254,255,256,257,258,259,260,261,262,263,264,265,266,267,268,269,270,271,272,273,274,275,276,277,278,279,280,281,282,283,284,285,286,287,288,289,290,291,292,293,294,295,296,297,298,299,300],"tree_info":[0,0,0,0,0,0,0,0,0,0,0,0,0,0,0,0,0,0,0,0,0,0,0,0,0,0,0,0,0,0,0,0,0,0,0,0,0,0,0,0,0,0,0,0,0,0,0,0,0,0,0,0,0,0,0,0,0,0,0,0,0,0,0,0,0,0,0,0,0,0,0,0,0,0,0,0,0,0,0,0,0,0,0,0,0,0,0,0,0,0,0,0,0,0,0,0,0,0,0,0,0,0,0,0,0,0,0,0,0,0,0,0,0,0,0,0,0,0,0,0,0,0,0,0,0,0,0,0,0,0,0,0,0,0,0,0,0,0,0,0,0,0,0,0,0,0,0,0,0,0,0,0,0,0,0,0,0,0,0,0,0,0,0,0,0,0,0,0,0,0,0,0,0,0,0,0,0,0,0,0,0,0,0,0,0,0,0,0,0,0,0,0,0,0,0,0,0,0,0,0,0,0,0,0,0,0,0,0,0,0,0,0,0,0,0,0,0,0,0,0,0,0,0,0,0,0,0,0,0,0,0,0,0,0,0,0,0,0,0,0,0,0,0,0,0,0,0,0,0,0,0,0,0,0,0,0,0,0,0,0,0,0,0,0,0,0,0,0,0,0,0,0,0,0,0,0,0,0,0,0,0,0,0,0,0,0,0,0,0,0,0,0,0,0,0,0,0,0,0,0],"trees":[{"base_weights":[1.501568E0,-5.943386E2,1.2847482E3,-9.135575E2,-1.2892018E2,8.522997E2,2.1006943E3,-1.0670546E3,-7.1778845E2,-3.217145E2,1.09458595E2,6.016719E2,1.1549922E3,1.821008E3,2.666017E3,-1.1526486E3,-9.763501E2,-8.027689E2,-6.084388E2,-4.1830835E2,-2.1836806E2,-1.4405268E0,2.1961665E2,4.651318E2,7.2710583E2,1.02261816E3,1.3109222E3,1.3213904E2,1.6366985E2,1.9460274E2,2.34469E2,-9.5445915E1,-8.8336716E1,-8.16822E1,-7.485238E1,-6.720416E1,-6.0028976E1,-5.1923183E1,-4.446052E1,-4.6486E2,-2.8813328E1,-2.7124707E2,-1.6407173E2,-5.4607002E1,5.367468E1,1.5973624E2,2.7958673E2,3.2490543E1,4.174166E1,5.2856037E1,6.434453E1,7.5847755E1,8.665417E1,9.7401436E1,1.101597E2,-3.9037132E1,-3.4607513E1,-2.3603235E1,-1.9514408E1,-1.4973189E1,-1.0607714E1,-6.4665337E0,-2.0782926E0,1.5438473E0,5.896992E0,1.0632219E1,1.4868983E1,1.9636604E1,2.4920366E1],"categories":[],"categories_nodes":[],"categories_segments":[],"categories_sizes":[],"default_left":[0,0,0,0,0,0,0,0,0,0,0,0,0,0,0,0,0,0,0,0,0,0,0,0,0,0,0,0,0,0,0,0,0,0,0,0,0,0,0,0,0,0,0,0,0,0,0,0,0,0,0,0,0,0,0,0,0,0,0,0,0,0,0,0,0,0,0,0,0],"id":0,"left_children":[1,3,5,7,9,11,13,15,17,19,21,23,25,27,29,31,33,35,37,39,41,43,45,47,49,51,53,-1,-1,-1,-1,-1,-1,-1,-1,-1,-1,-1,-1,55,-1,57,59,61,63,65,67,-1,-1,-1,-1,-1,-1,-1,-1,-1,-1,-1,-1,-1,-1,-1,-1,-1,-1,-1,-1,-1,-1],"loss_changes":[5.476135E9,7.265399E8,7.995425E8,8.640896E7,9.153775E7,1.1203763E8,1.194217E8,1.1483008E7,1.1387584E7,1.0899528E7,1.0885158E7,1.3620096E7,1.253024E7,1.6756096E7,8.824576E6,3.0784E5,4.90176E5,7.6864E5,8.43536E5,1.36992E6,1.488682E6,1.3069064E6,1.56053E6,1.101384E6,1.63712E6,6.33824E5,2.05792E5,0E0,0E0,0E0,0E0,0E0,0E0,0E0,0E0,0E0,0E0,0E0,0E0,2.1496E4,0E0,1.0287E5,1.68529E5,1.6832456E5,1.4943088E5,1.33736E5,1.6537E5,0E0,0E0,0E0,0E0,0E0,0E0,0E0,0E0,0E0,0E0,0E0,0E0,0E0,0E0,0E0,0E0,0E0,0E0,0E0,0E0,0E0,0E0],"parents":[2147483647,0,0,1,1,2,2,3,3,4,4,5,5,6,6,7,7,8,8,9,9,10,10,11,11,12,12,13,13,14,14,15,15,16,16,17,17,18,18,19,19,20,20,21,21,22,22,23,23,24,24,25,25,26,26,39,39,41,41,42,42,43,43,44,44,45,45,46,46],"right_children":[2,4,6,8,10,12,14,16,18,20,22,24,26,28,30,32,34,36,38,40,42,44,46,48,50,52,54,-1,-1,-1,-1,-1,-1,-1,-1,-1,-1,-1,-1,56,-1,58,60,62,64,66,68,-1,-1,-1,-1,-1,-1,-1,-1,-1,-1,-1,-1,-1,-1,-1,-1,-1,-1,-1,-1,-1,-1],"split_conditions":[3.3215585E-1,-5.050834E-1,1.4148294E0,-8.6354214E-1,-1.0771911E-1,8.5073835E-1,2.1680787E0,-1.0309631E0,-6.8156546E-1,-3.111343E-1,1.0226066E-1,5.6871206E-1,1.1194812E0,1.7793322E0,2.5556684E0,-1.1099308E0,-9.504915E-1,-7.6991254E-1,-5.849958E-1,-3.9972237E-1,-2.1617444E-1,-4.0835952E-3,2.0284042E-1,4.4493937E-1,7.0229787E-1,9.7878134E-1,1.2466856E0,1.3213904E2,1.6366985E2,1.9460274E2,2.34469E2,-9.5445915E1,-8.8336716E1,-8.16822E1,-7.485238E1,-6.720416E1,-6.0028976E1,-5.1923183E1,-4.446052E1,-4.4560695E-1,-2.8813328E1,-2.6625225E-1,-1.5630278E-1,-5.4122843E-2,3.6846217E-2,1.5017919E-1,2.6284704E-1,3.2490543E1,4.174166E1,5.2856037E1,6.434453E1,7.5847755E1,8.665417E1,9.7401436E1,1.101597E2,-3.9037132E1,-3.4607513E1,-2.3603235E1,-1.9514408E1,-1.4973189E1,-1.0607714E1,-6.4665337E0,-2.0782926E0,1.5438473E0,5.896992E0,1.0632219E1,1.4868983E1,1.9636604E1,2.4920366E1],"split_indices":[2,2,2,2,2,2,2,2,2,2,2,2,2,2,2,2,2,2,2,2,2,2,2,2,2,2,2,0,0,0,0,0,0,0,0,0,0,0,0,2,0,2,2,2,2,2,2,0,0,0,0,0,0,0,0,0,0,0,0,0,0,0,0,0,0,0,0,0,0],"split_type":[0,0,0,0,0,0,0,0,0,0,0,0,0,0,0,0,0,0,0,0,0,0,0,0,0,0,0,0,0,0,0,0,0,0,0,0,0,0,0,0,0,0,0,0,0,0,0,0,0,0,0,0,0,0,0,0,0,0,0,0,0,0,0,0,0,0,0,0,0],"sum_hessian":[7.16E3,4.89E3,2.27E3,2.9E3,1.99E3,1.485E3,7.85E2,1.623E3,1.277E3,1.1E3,8.9E2,8.14E2,6.71E2,5.28E2,2.57E2,8.29E2,7.94E2,7.15E2,5.62E2,5.67E2,5.33E2,4.44E2,4.46E2,3.92E2,4.22E2,3.67E2,3.04E2,3.06E2,2.22E2,1.42E2,1.15E2,4.39E2,3.9E2,3.67E2,4.27E2,4.09E2,3.06E2,3.11E2,2.51E2,3.11E2,2.56E2,2.68E2,2.65E2,2.26E2,2.18E2,2.25E2,2.21E2,1.96E2,1.96E2,2.32E2,1.9E2,1.72E2,1.95E2,1.34E2,1.7E2,1.73E2,1.38E2,1.38E2,1.3E2,1.5E2,1.15E2,1.17E2,1.09E2,8.1E1,1.37E2,1.14E2,1.11E2,1.11E2,1.1E2],"tree_param":{"num_deleted":"0","num_feature":"6","num_nodes":"69","size_leaf_vector":"1"}},{"base_weights":[-1.6667193E-2,-5.4630145E2,1.1870377E3,-8.442841E2,-1.2259299E2,7.9965753E2,1.9536527E3,-9.878351E2,-6.72728E2,-3.0340338E2,1.01920456E2,5.659193E2,1.0873757E3,1.6734747E3,2.4186763E3,-8.538247E1,-9.1002423E2,-7.5153937E2,-5.7086334E2,-3.9480295E2,-2.0750473E2,1.992336E0,2.038339E2,4.446686E2,7.001318E2,9.718658E2,9.9690796E1,1.2168811E2,1.4649092E2,1.771039E2,2.1551503E2,-7.589825E1,-6.952498E1,-6.2998627E1,-5.666176E1,-4.912597E1,-4.1932587E1,-4.3612E2,-3.417065E2,-2.531107E2,-1.5044235E2,-4.895186E1,5.0985302E1,1.5492683E2,2.6523367E2,3.8881824E2,4.1147884E1,5.131822E1,6.1526367E1,7.2274345E1,8.28868E1,-3.6665936E1,-3.260829E1,-2.8824484E1,-2.523562E1,-2.2012411E1,-1.7987953E1,-1.42833185E1,-1.0212268E1,-5.9009237E0,-1.9996853E0,2.021777E0,6.084309E0,1.0235257E1,1.4874246E1,1.937722E1,2.3715672E1,2.7830717E1,3.3322765E1],"categories":[],"categories_nodes":[],"categories_segments":[],"categories_sizes":[],"default_left":[0,0,0,0,0,0,0,0,0,0,0,0,0,0,0,0,0,0,0,0,0,0,0,0,0,0,0,0,0,0,0,0,0,0,0,0,0,0,0,0,0,0,0,0,0,0,0,0,0,0,0,0,0,0,0,0,0,0,0,0,0,0,0,0,0,0,0,0,0],"id":1,"left_children":[1,3,5,7,9,11,13,15,17,19,21,23,25,27,29,-1,31,33,35,37,39,41,43,45,47,49,-1,-1,-1,-1,-1,-1,-1,-1,-1,-1,-1,51,53,55,57,59,61,63,65,67,-1,-1,-1,-1,-1,-1,-1,-1,-1,-1,-1,-1,-1,-1,-1,-1,-1,-1,-1,-1,-1,-1,-1],"loss_changes":[4.6871393E9,6.248723E8,6.749386E8,7.090176E7,8.30464E7,1.012695E8,9.549338E7,8.795904E6,1.0224256E7,9.848928E6,9.297603E6,1.3325728E7,1.1222208E7,8.745984E6,1.0108672E7,0E0,4.51712E5,6.00864E5,8.54752E5,1.121184E6,1.406244E6,1.1556049E6,1.316212E6,1.524024E6,1.108112E6,8.088E5,0E0,0E0,0E0,0E0,0E0,0E0,0E0,0E0,0E0,0E0,0E0,1.7072E4,1.2364E4,1.29394E5,1.36656E5,1.330705E5,1.5020119E5,1.887095E5,7.1168E4,1.38732E5,0E0,0E0,0E0,0E0,0E0,0E0,0E0,0E0,0E0,0E0,0E0,0E0,0E0,0E0,0E0,0E0,0E0,0E0,0E0,0E0,0E0,0E0,0E0],"parents":[2147483647,0,0,1,1,2,2,3,3,4,4,5,5,6,6,7,7,8,8,9,9,10,10,11,11,12,12,13,13,14,14,16,16,17,17,18,18,19,19,20,20,21,21,22,22,23,23,24,24,25,25,37,37,38,38,39,39,40,40,41,41,42,42,43,43,44,44,45,45],"right_children":[2,4,6,8,10,12,14,16,18,20,22,24,26,28,30,-1,32,34,36,38,40,42,44,46,48,50,-1,-1,-1,-1,-1,-1,-1,-1,-1,-1,-1,52,54,56,58,60,62,64,66,68,-1,-1,-1,-1,-1,-1,-1,-1,-1,-1,-1,-1,-1,-1,-1,-1,-1,-1,-1,-1,-1,-1,-1],"split_conditions":[3.3215585E-1,-5.119468E-1,1.4528962E0,-8.7709546E-1,-1.0771911E-1,8.714635E-1,2.1133063E0,-1.0423185E0,-6.9876254E-1,-3.1906772E-1,1.0226066E-1,5.9856594E-1,1.1624546E0,1.7359539E0,2.5556684E0,-8.538247E1,-9.575284E-1,-7.876013E-1,-6.019519E-1,-4.098247E-1,-2.1617444E-1,-4.0835952E-3,2.2088577E-1,4.7678867E-1,7.438542E-1,1.0204438E0,9.9690796E1,1.2168811E2,1.4649092E2,1.771039E2,2.1551503E2,-7.589825E1,-6.952498E1,-6.2998627E1,-5.666176E1,-4.912597E1,-4.1932587E1,-4.5867828E-1,-3.560549E-1,-2.6625225E-1,-1.6783176E-1,-5.4122843E-2,5.214429E-2,1.6126475E-1,2.8672436E-1,3.9863065E-1,4.1147884E1,5.131822E1,6.1526367E1,7.2274345E1,8.28868E1,-3.6665936E1,-3.260829E1,-2.8824484E1,-2.523562E1,-2.2012411E1,-1.7987953E1,-1.42833185E1,-1.0212268E1,-5.9009237E0,-1.9996853E0,2.021777E0,6.084309E0,1.0235257E1,1.4874246E1,1.937722E1,2.3715672E1,2.7830717E1,3.3322765E1],"split_indices":[3,3,3,3,3,3,3,3,3,3,3,3,3,3,3,0,3,3,3,3,3,3,3,3,3,3,0,0,0,0,0,0,0,0,0,0,0,3,3,3,3,3,3,3,3,3,0,0,0,0,0,0,0,0,0,0,0,0,0,0,0,0,0,0,0,0,0,0,0],"split_type":[0,0,0,0,0,0,0,0,0,0,0,0,0,0,0,0,0,0,0,0,0,0,0,0,0,0,0,0,0,0,0,0,0,0,0,0,0,0,0,0,0,0,0,0,0,0,0,0,0,0,0,0,0,0,0,0,0,0,0,0,0,0,0,0,0,0,0,0,0],"sum_hessian":[7.226E3,4.949E3,2.277E3,2.905E3,2.044E3,1.514E3,7.63E2,1.579E3,1.326E3,1.132E3,9.12E2,8.37E2,6.77E2,4.79E2,2.84E2,7.75E2,8.04E2,7.44E2,5.82E2,5.78E2,5.54E2,4.61E2,4.51E2,4.42E2,3.95E2,3.96E2,2.81E2,2.49E2,2.3E2,1.68E2,1.16E2,4.02E2,4.02E2,3.97E2,3.47E2,2.96E2,2.86E2,3.21E2,2.57E2,3.06E2,2.48E2,2.26E2,2.35E2,2.53E2,1.98E2,2.49E2,1.93E2,2.19E2,1.76E2,1.99E2,1.97E2,1.72E2,1.49E2,1.43E2,1.14E2,1.67E2,1.39E2,1.08E2,1.4E2,1.1E2,1.16E2,1.17E2,1.18E2,1.38E2,1.15E2,1.19E2,7.9E1,1.06E2,1.43E2],"tree_param":{"num_deleted":"0","num_feature":"6","num_nodes":"69","size_leaf_vector":"1"}},{"base_weights":[2.313569E0,-5.0550632E2,1.0739619E3,-7.804601E2,-1.21834E2,7.054128E2,1.759101E3,-9.1153503E2,-6.2494525E2,-2.8638272E2,8.123685E1,4.87435E2,9.501032E2,1.4930494E3,2.1906853E3,-7.887066E1,-8.4401324E2,-6.975778E2,-5.3432806E2,-3.7226465E2,-1.9983957E2,-1.2175726E1,1.75705E2,3.781516E2,5.9361066E2,8.401317E2,1.0869897E3,1.08793495E2,1.3211966E2,1.5776077E2,1.951379E2,-7.062673E1,-6.4583374E1,-5.870559E1,-5.2857502E1,-4.622876E1,-3.9540604E1,-3.2746983E1,-3.2406403E2,-2.4175896E2,-1.5005751E2,-5.9271084E1,3.4768467E1,1.2517399E2,2.2351842E2,3.2938406E2,3.4020443E1,4.2297966E1,5.117082E1,6.1130474E1,7.154045E1,8.083243E1,9.153836E1,-2.7310993E1,-2.3817736E1,-2.0966547E1,-1.733824E1,-1.3505334E1,-9.96414E0,-6.5825315E0,-2.7774265E0,8.684289E-1,4.606105E0,8.186265E0,1.1689603E1,1.5561255E1,2.0029026E1,2.3828426E1,2.8059479E1],"categories":[],"categories_nodes":[],"categories_segments":[],"categories_sizes":[],"default_left":[0,0,0,0,0,0,0,0,0,0,0,0,0,0,0,0,0,0,0,0,0,0,0,0,0,0,0,0,0,0,0,0,0,0,0,0,0,0,0,0,0,0,0,0,0,0,0,0,0,0,0,0,0,0,0,0,0,0,0,0,0,0,0,0,0,0,0,0,0],"id":2,"left_children":[1,3,5,7,9,11,13,15,17,19,21,23,25,27,29,-1,31,33,35,37,39,41,43,45,47,49,51,-1,-1,-1,-1,-1,-1,-1,-1,-1,-1,-1,53,55,57,59,61,63,65,67,-1,-1,-1,-1,-1,-1,-1,-1,-1,-1,-1,-1,-1,-1,-1,-1,-1,-1,-1,-1,-1,-1,-1],"loss_changes":[3.913372E9,5.146011E8,5.8255616E8,5.736192E7,6.812312E7,7.980915E7,8.950682E7,6.898816E6,8.203296E6,8.2946E6,8.05892E6,9.034912E6,9.744768E6,8.364416E6,1.18208E7,0E0,4.4768E5,4.7696E5,7.33072E5,8.75168E5,1.138608E6,1.01905344E6,1.068913E6,7.69596E5,8.65312E5,9.49696E5,2.11584E5,0E0,0E0,0E0,0E0,0E0,0E0,0E0,0E0,0E0,0E0,0E0,1.245E4,9.7844E4,1.03375E5,1.2708975E5,1.2536384E5,9.1759E4,1.31926E5,2.954E4,0E0,0E0,0E0,0E0,0E0,0E0,0E0,0E0,0E0,0E0,0E0,0E0,0E0,0E0,0E0,0E0,0E0,0E0,0E0,0E0,0E0,0E0,0E0],"parents":[2147483647,0,0,1,1,2,2,3,3,4,4,5,5,6,6,7,7,8,8,9,9,10,10,11,11,12,12,13,13,14,14,16,16,17,17,18,18,19,19,20,20,21,21,22,22,23,23,24,24,25,25,26,26,38,38,39,39,40,40,41,41,42,42,43,43,44,44,45,45],"right_children":[2,4,6,8,10,12,14,16,18,20,22,24,26,28,30,-1,32,34,36,38,40,42,44,46,48,50,52,-1,-1,-1,-1,-1,-1,-1,-1,-1,-1,-1,54,56,58,60,62,64,66,68,-1,-1,-1,-1,-1,-1,-1,-1,-1,-1,-1,-1,-1,-1,-1,-1,-1,-1,-1,-1,-1,-1,-1],"split_conditions":[3.1660718E-1,-5.2042E-1,1.3827199E0,-8.8405526E-1,-1.21831514E-1,8.058273E-1,2.070063E0,-1.053539E0,-7.087396E-1,-3.314546E-1,8.872663E-2,5.50551E-1,1.0969824E0,1.7032949E0,2.477597E0,-7.887066E1,-9.714191E-1,-8.009039E-1,-6.171825E-1,-4.2224053E-1,-2.2509108E-1,-1.8562298E-2,1.9153315E-1,4.2685547E-1,6.583412E-1,9.3688756E-1,1.2237047E0,1.08793495E2,1.3211966E2,1.5776077E2,1.951379E2,-7.062673E1,-6.4583374E1,-5.870559E1,-5.2857502E1,-4.622876E1,-3.9540604E1,-3.2746983E1,-3.652993E-1,-2.7683654E-1,-1.6783176E-1,-6.886182E-2,3.6846217E-2,1.3514139E-1,2.5338092E-1,3.6643434E-1,3.4020443E1,4.2297966E1,5.117082E1,6.1130474E1,7.154045E1,8.083243E1,9.153836E1,-2.7310993E1,-2.3817736E1,-2.0966547E1,-1.733824E1,-1.3505334E1,-9.96414E0,-6.5825315E0,-2.7774265E0,8.684289E-1,4.606105E0,8.186265E0,1.1689603E1,1.5561255E1,2.0029026E1,2.3828426E1,2.8059479E1],"split_indices":[2,2,2,2,2,2,2,2,2,2,2,2,2,2,2,0,2,2,2,2,2,2,2,2,2,2,2,0,0,0,0,0,0,0,0,0,0,0,2,2,2,2,2,2,2,2,0,0,0,0,0,0,0,0,0,0,0,0,0,0,0,0,0,0,0,0,0,0,0],"split_type":[0,0,0,0,0,0,0,0,0,0,0,0,0,0,0,0,0,0,0,0,0,0,0,0,0,0,0,0,0,0,0,0,0,0,0,0,0,0,0,0,0,0,0,0,0,0,0,0,0,0,0,0,0,0,0,0,0,0,0,0,0,0,0,0,0,0,0,0,0],"sum_hessian":[7.189E3,4.878E3,2.311E3,2.841E3,2.037E3,1.504E3,8.07E2,1.539E3,1.302E3,1.125E3,9.12E2,7.97E2,7.07E2,5.02E2,3.05E2,7.26E2,8.13E2,7.19E2,5.83E2,5.63E2,5.62E2,4.59E2,4.53E2,3.95E2,4.02E2,3.96E2,3.11E2,2.78E2,2.24E2,1.67E2,1.38E2,3.84E2,4.29E2,3.53E2,3.66E2,2.73E2,3.1E2,3.14E2,2.49E2,3.03E2,2.59E2,2.29E2,2.3E2,2.22E2,2.31E2,1.98E2,1.97E2,1.72E2,2.3E2,1.71E2,2.25E2,1.41E2,1.7E2,1.43E2,1.06E2,1.62E2,1.41E2,1.46E2,1.13E2,1.17E2,1.12E2,1.13E2,1.17E2,1.09E2,1.13E2,1.15E2,1.16E2,8.6E1,1.12E2],"tree_param":{"num_deleted":"0","num_feature":"6","num_nodes":"69","size_leaf_vector":"1"}},{"base_weights":[7.676034E-1,-4.5812756E2,1.0139471E3,-7.0894476E2,-8.981639E1,6.944055E2,1.6699795E3,-8.286886E2,-5.5124084E2,-2.3886258E2,1.020385E2,4.929343E2,9.417087E2,1.4666025E3,2.1217373E3,-8.935644E2,-7.514988E2,-6.151036E2,-4.625203E2,-3.1385455E2,-1.5469917E2,2.0238344E1,1.8999355E2,3.8947134E2,6.0807263E2,8.392178E2,8.5990425E1,1.0740078E2,1.3245523E2,1.5660558E2,1.8840569E2,-7.522747E1,-6.857292E1,-6.2497593E1,-5.7192635E1,-5.145663E1,-4.549076E1,-3.9276978E1,-3.377974E1,-3.5446042E2,-2.7107626E2,-1.9407173E2,-1.1002553E2,-2.2698933E1,6.3086857E1,1.4609137E2,2.3708456E2,3.4078702E2,3.593127E1,4.4738148E1,5.3485588E1,6.2472122E1,7.1718575E1,-2.978826E1,-2.6390617E1,-2.3130007E1,-2.0105425E1,-1.6841986E1,-1.3525544E1,-1.0261162E1,-6.8865237E0,-3.436009E0,-4.675879E-2,3.395875E0,6.7566757E0,9.827942E0,1.3441386E1,1.6865866E1,2.0570553E1,2.4741177E1,2.910716E1],"categories":[],"categories_nodes":[],"categories_segments":[],"categories_sizes":[],"default_left":[0,0,0,0,0,0,0,0,0,0,0,0,0,0,0,0,0,0,0,0,0,0,0,0,0,0,0,0,0,0,0,0,0,0,0,0,0,0,0,0,0,0,0,0,0,0,0,0,0,0,0,0,0,0,0,0,0,0,0,0,0,0,0,0,0,0,0,0,0,0,0],"id":3,"left_children":[1,3,5,7,9,11,13,15,17,19,21,23,25,27,29,31,33,35,37,39,41,43,45,47,49,51,-1,-1,-1,-1,-1,-1,-1,-1,-1,-1,-1,-1,-1,53,55,57,59,61,63,65,67,69,-1,-1,-1,-1,-1,-1,-1,-1,-1,-1,-1,-1,-1,-1,-1,-1,-1,-1,-1,-1,-1,-1,-1],"loss_changes":[3.3364316E9,4.5619514E8,4.677819E8,5.502451E7,5.7272044E7,7.457152E7,6.4142336E7,7.681408E6,6.916896E6,7.064596E6,6.298745E6,9.674416E6,8.310912E6,9.697152E6,4.008576E6,7.2832E5,2.76736E5,5.95456E5,4.06656E5,9.3746E5,9.16149E5,8.385403E5,8.37805E5,1.128032E6,7.8448E5,5.8896E5,0E0,0E0,0E0,0E0,0E0,0E0,0E0,0E0,0E0,0E0,0E0,0E0,0E0,9.976E3,3.2182E4,8.0413E4,9.9011E4,1.0208325E5,9.6980125E4,9.1982E4,5.2137E4,6.6966E4,0E0,0E0,0E0,0E0,0E0,0E0,0E0,0E0,0E0,0E0,0E0,0E0,0E0,0E0,0E0,0E0,0E0,0E0,0E0,0E0,0E0,0E0,0E0],"parents":[2147483647,0,0,1,1,2,2,3,3,4,4,5,5,6,6,7,7,8,8,9,9,10,10,11,11,12,12,13,13,14,14,15,15,16,16,17,17,18,18,19,19,20,20,21,21,22,22,23,23,24,24,25,25,39,39,40,40,41,41,42,42,43,43,44,44,45,45,46,46,47,47],"right_children":[2,4,6,8,10,12,14,16,18,20,22,24,26,28,30,32,34,36,38,40,42,44,46,48,50,52,-1,-1,-1,-1,-1,-1,-1,-1,-1,-1,-1,-1,-1,54,56,58,60,62,64,66,68,70,-1,-1,-1,-1,-1,-1,-1,-1,-1,-1,-1,-1,-1,-1,-1,-1,-1,-1,-1,-1,-1,-1,-1],"split_conditions":[3.5091457E-1,-4.9650413E-1,1.4805042E0,-8.5166615E-1,-8.504673E-2,8.9822304E-1,2.250295E0,-1.0162722E0,-6.638093E-1,-2.958073E-1,1.24933034E-1,6.1968637E-1,1.1924917E0,1.8806252E0,2.718173E0,-1.1210839E0,-9.2770344E-1,-7.5110567E-1,-5.646466E-1,-3.8719088E-1,-1.9129458E-1,1.9533465E-2,2.3329197E-1,4.891756E-1,7.632106E-1,1.0374384E0,8.5990425E1,1.0740078E2,1.3245523E2,1.5660558E2,1.8840569E2,-7.522747E1,-6.857292E1,-6.2497593E1,-5.7192635E1,-5.145663E1,-4.549076E1,-3.9276978E1,-3.377974E1,-4.372012E-1,-3.3742154E-1,-2.3700565E-1,-1.3507634E-1,-3.087209E-2,7.458532E-2,1.7572418E-1,2.8672436E-1,4.138709E-1,3.593127E1,4.4738148E1,5.3485588E1,6.2472122E1,7.1718575E1,-2.978826E1,-2.6390617E1,-2.3130007E1,-2.0105425E1,-1.6841986E1,-1.3525544E1,-1.0261162E1,-6.8865237E0,-3.436009E0,-4.675879E-2,3.395875E0,6.7566757E0,9.827942E0,1.3441386E1,1.6865866E1,2.0570553E1,2.4741177E1,2.910716E1],"split_indices":[2,2,2,2,2,2,2,2,2,2,2,2,2,2,2,2,2,2,2,2,2,2,2,2,2,2,0,0,0,0,0,0,0,0,0,0,0,0,0,2,2,2,2,2,2,2,2,2,0,0,0,0,0,0,0,0,0,0,0,0,0,0,0,0,0,0,0,0,0,0,0],"split_type":[0,0,0,0,0,0,0,0,0,0,0,0,0,0,0,0,0,0,0,0,0,0,0,0,0,0,0,0,0,0,0,0,0,0,0,0,0,0,0,0,0,0,0,0,0,0,0,0,0,0,0,0,0,0,0,0,0,0,0,0,0,0,0,0,0,0,0,0,0,0,0],"sum_hessian":[7.174E3,4.938E3,2.236E3,2.937E3,2.001E3,1.505E3,7.31E2,1.667E3,1.27E3,1.126E3,8.75E2,8.31E2,6.74E2,5.07E2,2.24E2,9E2,7.67E2,7.35E2,5.35E2,5.94E2,5.32E2,4.54E2,4.21E2,4.4E2,3.91E2,3.85E2,2.89E2,3.11E2,1.96E2,1.37E2,8.7E1,3.83E2,5.17E2,4.12E2,3.55E2,4.5E2,2.85E2,3.07E2,2.28E2,3.01E2,2.93E2,2.81E2,2.51E2,2.27E2,2.27E2,2.2E2,2.01E2,2.46E2,1.94E2,2.22E2,1.69E2,1.98E2,1.87E2,1.66E2,1.35E2,1.46E2,1.47E2,1.65E2,1.16E2,1.4E2,1.11E2,1.18E2,1.09E2,1.17E2,1.1E2,1.1E2,1.1E2,9.2E1,1.09E2,1.1E2,1.36E2],"tree_param":{"num_deleted":"0","num_feature":"6","num_nodes":"71","size_leaf_vector":"1"}},{"base_weights":[2.4989007E0,-4.295343E2,9.1236615E2,-6.6407416E2,-1.0908415E2,5.886819E2,1.4753315E3,-7.763994E2,-5.390323E2,-2.511698E2,6.3860817E1,4.125225E2,7.930315E2,1.2331875E3,1.8281852E3,-6.744412E1,-7.251928E2,-5.985895E2,-4.602013E2,-3.259622E2,-1.8264908E2,-2.0467173E1,1.4346832E2,3.205737E2,5.034296E2,7.0348236E2,8.986134E2,8.888623E1,1.0818545E2,1.3205927E2,1.6545375E2,-6.055194E1,-5.537821E1,-5.0635902E1,-4.5543354E1,-3.9894363E1,-3.4297047E1,-2.8776255E1,-2.9299063E2,-2.1882356E2,-1.3899287E2,-5.9326935E1,1.9351368E1,1.0155566E2,1.893649E2,2.1882545E1,3.5474884E2,3.63888E1,4.382591E1,5.18326E1,5.984297E1,6.789487E1,7.625688E1,-2.459309E1,-2.15368E1,-1.877923E1,-1.5822013E1,-1.2692308E1,-9.39199E0,-6.26484E0,-3.1591928E0,-2.1945143E-2,3.1754565E0,6.2203736E0,9.486632E0,1.3201078E1,1.6931692E1,2.6406929E1,3.0255428E1],"categories":[],"categories_nodes":[],"categories_segments":[],"categories_sizes":[],"default_left":[0,0,0,0,0,0,0,0,0,0,0,0,0,0,0,0,0,0,0,0,0,0,0,0,0,0,0,0,0,0,0,0,0,0,0,0,0,0,0,0,0,0,0,0,0,0,0,0,0,0,0,0,0,0,0,0,0,0,0,0,0,0,0,0,0,0,0,0,0],"id":4,"left_children":[1,3,5,7,9,11,13,15,17,19,21,23,25,27,29,-1,31,33,35,37,39,41,43,45,47,49,51,-1,-1,-1,-1,-1,-1,-1,-1,-1,-1,-1,53,55,57,59,61,63,65,-1,67,-1,-1,-1,-1,-1,-1,-1,-1,-1,-1,-1,-1,-1,-1,-1,-1,-1,-1,-1,-1,-1,-1],"loss_changes":[2.8216195E9,3.65723E8,4.2024883E8,3.904896E7,5.058727E7,5.2553984E7,6.977267E7,4.433088E6,5.982912E6,5.73152E6,6.239445E6,6.450416E6,5.787648E6,5.81472E6,1.1107328E7,0E0,3.57152E5,4.00672E5,4.8652E5,4.94248E5,9.04496E5,7.005453E5,9.00273E5,5.39596E5,6.0468E5,4.36464E5,3.0608E4,0E0,0E0,0E0,0E0,0E0,0E0,0E0,0E0,0E0,0E0,0E0,1.259E4,6.1452E4,9.6424E4,8.314381E4,8.943672E4,9.29065E4,8.82405E4,0E0,5.834E3,0E0,0E0,0E0,0E0,0E0,0E0,0E0,0E0,0E0,0E0,0E0,0E0,0E0,0E0,0E0,0E0,0E0,0E0,0E0,0E0,0E0,0E0],"parents":[2147483647,0,0,1,1,2,2,3,3,4,4,5,5,6,6,7,7,8,8,9,9,10,10,11,11,12,12,13,13,14,14,16,16,17,17,18,18,19,19,20,20,21,21,22,22,23,23,24,24,25,25,26,26,38,38,39,39,40,40,41,41,42,42,43,43,44,44,46,46],"right_children":[2,4,6,8,10,12,14,16,18,20,22,24,26,28,30,-1,32,34,36,38,40,42,44,46,48,50,52,-1,-1,-1,-1,-1,-1,-1,-1,-1,-1,-1,54,56,58,60,62,64,66,-1,68,-1,-1,-1,-1,-1,-1,-1,-1,-1,-1,-1,-1,-1,-1,-1,-1,-1,-1,-1,-1,-1,-1],"split_conditions":[3.1660718E-1,-5.2967405E-1,1.3594306E0,-8.947938E-1,-1.3507634E-1,8.058273E-1,2.0315046E0,-1.0714494E0,-7.1915036E-1,-3.4762987E-1,7.458532E-2,5.50551E-1,1.0687768E0,1.6326172E0,2.477597E0,-6.744412E1,-9.8218656E-1,-8.168671E-1,-6.306298E-1,-4.4560695E-1,-2.4606688E-1,-3.087209E-2,1.9153315E-1,4.138709E-1,6.7616487E-1,9.3688756E-1,1.2237047E0,8.888623E1,1.0818545E2,1.3205927E2,1.6545375E2,-6.055194E1,-5.537821E1,-5.0635902E1,-4.5543354E1,-3.9894363E1,-3.4297047E1,-2.8776255E1,-3.8719088E-1,-2.958073E-1,-1.9129458E-1,-8.504673E-2,1.9533465E-2,1.24933034E-1,2.5338092E-1,2.1882545E1,4.7678867E-1,3.63888E1,4.382591E1,5.18326E1,5.984297E1,6.789487E1,7.625688E1,-2.459309E1,-2.15368E1,-1.877923E1,-1.5822013E1,-1.2692308E1,-9.39199E0,-6.26484E0,-3.1591928E0,-2.1945143E-2,3.1754565E0,6.2203736E0,9.486632E0,1.3201078E1,1.6931692E1,2.6406929E1,3.0255428E1],"split_indices":[2,2,2,2,2,2,2,2,2,2,2,2,2,2,2,0,2,2,2,2,2,2,2,2,2,2,2,0,0,0,0,0,0,0,0,0,0,0,2,2,2,2,2,2,2,0,2,0,0,0,0,0,0,0,0,0,0,0,0,0,0,0,0,0,0,0,0,0,0],"split_type":[0,0,0,0,0,0,0,0,0,0,0,0,0,0,0,0,0,0,0,0,0,0,0,0,0,0,0,0,0,0,0,0,0,0,0,0,0,0,0,0,0,0,0,0,0,0,0,0,0,0,0,0,0,0,0,0,0,0,0,0,0,0,0,0,0,0,0,0,0],"sum_hessian":[7.176E3,4.866E3,2.31E3,2.809E3,2.057E3,1.468E3,8.42E2,1.477E3,1.332E3,1.129E3,9.28E2,7.9E2,6.78E2,5.02E2,3.4E2,6.35E2,8.42E2,7.55E2,5.77E2,5.38E2,5.91E2,4.51E2,4.77E2,3.95E2,3.95E2,3.71E2,3.07E2,2.53E2,2.49E2,2E2,1.4E2,4.18E2,4.24E2,3.38E2,4.17E2,2.53E2,3.24E2,2.61E2,2.77E2,3.21E2,2.7E2,2.28E2,2.23E2,2.51E2,2.26E2,1.7E2,2.25E2,1.94E2,2.01E2,1.72E2,1.99E2,1.69E2,1.38E2,1.65E2,1.12E2,1.77E2,1.44E2,1.38E2,1.32E2,1.15E2,1.13E2,1.14E2,1.09E2,1.07E2,1.44E2,1.12E2,1.14E2,1.17E2,1.08E2],"tree_param":{"num_deleted":"0","num_feature":"6","num_nodes":"69","size_leaf_vector":"1"}},{"base_weights":[2.8870072E0,-3.9540182E2,8.408374E2,-6.1362756E2,-1.0123652E2,5.792868E2,1.4391708E3,-7.173102E2,-5.0125974E2,-2.3274167E2,5.974066E1,4.0013162E2,7.972671E2,1.2549468E3,1.8046174E3,-6.23157E1,-6.717668E2,-5.5528973E2,-4.2919397E2,-3.017987E2,-1.6726971E2,-1.3926132E1,1.3600005E2,3.072973E2,4.9501974E2,6.900072E2,8.9975024E2,9.190519E1,1.124059E2,1.3290343E2,1.6092686E2,-5.603749E1,-5.1312405E1,-4.7005325E1,-4.2245907E1,-3.7262093E1,-3.203528E1,-2.7006063E1,-2.727372E2,-2.0141736E2,-1.27690796E2,-5.029213E1,2.7027306E1,1.0191859E2,1.7979636E2,2.668258E2,2.848519E1,3.589093E1,4.3720352E1,5.109138E1,5.8304607E1,6.63389E1,7.641507E1,-2.2864819E1,-1.9828583E1,-1.7094404E1,-1.4258628E1,-1.1434398E1,-8.32801E0,-5.418211E0,-2.1901667E0,7.0123976E-1,3.5535119E0,6.73246E0,9.792591E0,1.2553716E1,1.5627148E1,1.9002634E1,2.3097586E1],"categories":[],"categories_nodes":[],"categories_segments":[],"categories_sizes":[],"default_left":[0,0,0,0,0,0,0,0,0,0,0,0,0,0,0,0,0,0,0,0,0,0,0,0,0,0,0,0,0,0,0,0,0,0,0,0,0,0,0,0,0,0,0,0,0,0,0,0,0,0,0,0,0,0,0,0,0,0,0,0,0,0,0,0,0,0,0,0,0],"id":5,"left_children":[1,3,5,7,9,11,13,15,17,19,21,23,25,27,29,-1,31,33,35,37,39,41,43,45,47,49,51,-1,-1,-1,-1,-1,-1,-1,-1,-1,-1,-1,53,55,57,59,61,63,65,67,-1,-1,-1,-1,-1,-1,-1,-1,-1,-1,-1,-1,-1,-1,-1,-1,-1,-1,-1,-1,-1,-1,-1],"loss_changes":[2.403306E9,3.132709E8,3.622332E8,3.2285376E7,4.4046108E7,6.2789504E7,4.519872E7,3.561024E6,5.0104E6,5.126404E6,5.26014E6,7.678976E6,7.381568E6,5.906304E6,3.599488E6,0E0,2.86176E5,3.63488E5,4.25664E5,4.86028E5,7.71681E5,7.1176144E5,6.68291E5,7.97104E5,8.00768E5,2.52032E5,6.504E5,0E0,0E0,0E0,0E0,0E0,0E0,0E0,0E0,0E0,0E0,0E0,3.064E4,5.1471E4,8.43435E4,9.922825E4,7.107109E4,8.4687E4,4.04555E4,9.2394E4,0E0,0E0,0E0,0E0,0E0,0E0,0E0,0E0,0E0,0E0,0E0,0E0,0E0,0E0,0E0,0E0,0E0,0E0,0E0,0E0,0E0,0E0,0E0],"parents":[2147483647,0,0,1,1,2,2,3,3,4,4,5,5,6,6,7,7,8,8,9,9,10,10,11,11,12,12,13,13,14,14,16,16,17,17,18,18,19,19,20,20,21,21,22,22,23,23,24,24,25,25,26,26,38,38,39,39,40,40,41,41,42,42,43,43,44,44,45,45],"right_children":[2,4,6,8,10,12,14,16,18,20,22,24,26,28,30,-1,32,34,36,38,40,42,44,46,48,50,52,-1,-1,-1,-1,-1,-1,-1,-1,-1,-1,-1,54,56,58,60,62,64,66,68,-1,-1,-1,-1,-1,-1,-1,-1,-1,-1,-1,-1,-1,-1,-1,-1,-1,-1,-1,-1,-1,-1,-1],"split_conditions":[3.1660718E-1,-5.3753996E-1,1.5194578E0,-9.0159935E-1,-1.3507634E-1,8.714635E-1,2.250295E0,-1.0776767E0,-7.282598E-1,-3.4762987E-1,8.872663E-2,5.8490664E-1,1.1426741E0,1.8806252E0,2.718173E0,-6.23157E1,-9.896573E-1,-8.223328E-1,-6.4277565E-1,-4.5867828E-1,-2.4606688E-1,-1.8562298E-2,2.0284042E-1,4.5683467E-1,7.2421837E-1,9.97328E-1,1.310442E0,9.190519E1,1.124059E2,1.3290343E2,1.6092686E2,-5.603749E1,-5.1312405E1,-4.7005325E1,-4.2245907E1,-3.7262093E1,-3.203528E1,-2.7006063E1,-3.8719088E-1,-2.8594598E-1,-1.818092E-1,-6.886182E-2,3.6846217E-2,1.5017919E-1,2.5338092E-1,3.8485566E-1,2.848519E1,3.589093E1,4.3720352E1,5.109138E1,5.8304607E1,6.63389E1,7.641507E1,-2.2864819E1,-1.9828583E1,-1.7094404E1,-1.4258628E1,-1.1434398E1,-8.32801E0,-5.418211E0,-2.1901667E0,7.0123976E-1,3.5535119E0,6.73246E0,9.792591E0,1.2553716E1,1.5627148E1,1.9002634E1,2.3097586E1],"split_indices":[2,2,2,2,2,2,2,2,2,2,2,2,2,2,2,0,2,2,2,2,2,2,2,2,2,2,2,0,0,0,0,0,0,0,0,0,0,0,2,2,2,2,2,2,2,2,0,0,0,0,0,0,0,0,0,0,0,0,0,0,0,0,0,0,0,0,0,0,0],"split_type":[0,0,0,0,0,0,0,0,0,0,0,0,0,0,0,0,0,0,0,0,0,0,0,0,0,0,0,0,0,0,0,0,0,0,0,0,0,0,0,0,0,0,0,0,0,0,0,0,0,0,0,0,0,0,0,0,0,0,0,0,0,0,0,0,0,0,0,0,0],"sum_hessian":[7.199E3,4.88E3,2.319E3,2.801E3,2.079E3,1.615E3,7.04E2,1.454E3,1.347E3,1.144E3,9.35E2,8.88E2,7.27E2,4.71E2,2.33E2,6.11E2,8.43E2,7.66E2,5.81E2,5.55E2,5.89E2,4.76E2,4.59E2,4.51E2,4.37E2,3.59E2,3.68E2,2.81E2,1.9E2,1.43E2,9E1,4.22E2,4.21E2,3.41E2,4.25E2,2.49E2,3.32E2,2.44E2,3.11E2,3.14E2,2.75E2,2.52E2,2.24E2,2.6E2,1.99E2,2.5E2,2.01E2,2.35E2,2.02E2,1.62E2,1.97E2,1.69E2,1.99E2,1.97E2,1.14E2,2E2,1.14E2,1.64E2,1.11E2,1.42E2,1.1E2,1.1E2,1.14E2,1.42E2,1.18E2,8.5E1,1.14E2,1.12E2,1.38E2],"tree_param":{"num_deleted":"0","num_feature":"6","num_nodes":"69","size_leaf_vector":"1"}},{"base_weights":[1.2121228E0,-3.686611E2,7.654269E2,-5.6818915E2,-1.02414E2,5.0611594E2,1.2774747E3,-6.6328613E2,-4.652406E2,-2.2148274E2,4.5280064E1,3.4980008E2,6.950188E2,1.1061552E3,1.6305564E3,-5.774258E1,-6.2338245E2,-5.1490686E2,-4.0015582E2,-2.8430316E2,-1.5936357E2,-2.4714066E1,1.1309755E2,2.598795E2,4.2625406E2,6.077683E2,7.871683E2,1.0125041E3,1.0096095E2,1.2037575E2,1.4818437E2,-5.1928467E1,-4.750188E1,-4.351261E1,-3.920369E1,-3.4481304E1,-2.975823E1,-2.5231535E1,-2.5739645E2,-1.9144867E2,-1.2477914E2,-5.8019485E1,8.699274E0,7.8327736E1,1.510878E2,1.7234821E1,2.837031E2,2.9956564E1,3.722855E1,4.492185E1,5.1704945E1,5.9208504E1,6.790215E1,7.420249E1,8.5319824E1,-2.1684113E1,-1.9026619E1,-1.6344738E1,-1.3944968E1,-1.1342042E1,-8.5221815E0,-5.864437E0,-3.288729E0,-6.438228E-1,2.029655E0,4.7101927E0,7.413627E0,1.0485728E1,1.35401535E1,2.0925278E1,2.4010895E1],"categories":[],"categories_nodes":[],"categories_segments":[],"categories_sizes":[],"default_left":[0,0,0,0,0,0,0,0,0,0,0,0,0,0,0,0,0,0,0,0,0,0,0,0,0,0,0,0,0,0,0,0,0,0,0,0,0,0,0,0,0,0,0,0,0,0,0,0,0,0,0,0,0,0,0,0,0,0,0,0,0,0,0,0,0,0,0,0,0,0,0],"id":6,"left_children":[1,3,5,7,9,11,13,15,17,19,21,23,25,27,29,-1,31,33,35,37,39,41,43,45,47,49,51,53,-1,-1,-1,-1,-1,-1,-1,-1,-1,-1,55,57,59,61,63,65,67,-1,69,-1,-1,-1,-1,-1,-1,-1,-1,-1,-1,-1,-1,-1,-1,-1,-1,-1,-1,-1,-1,-1,-1,-1,-1],"loss_changes":[2.0306474E9,2.5711405E8,3.104562E8,2.6780544E7,3.650045E7,4.573277E7,4.580173E7,2.901952E6,4.09968E6,4.438492E6,4.4031025E6,5.760288E6,5.181824E6,6.501888E6,4.329664E6,0E0,2.70336E5,2.75632E5,3.44904E5,3.95656E5,6.19704E5,5.0907503E5,6.10316E5,3.57116E5,7.57432E5,2.89456E5,3.54704E5,5.61536E5,0E0,0E0,0E0,0E0,0E0,0E0,0E0,0E0,0E0,0E0,1.8616E4,3.0283E4,7.2378E4,5.6181125E4,6.414032E4,6.3727875E4,5.92575E4,0E0,1.3894E4,0E0,0E0,0E0,0E0,0E0,0E0,0E0,0E0,0E0,0E0,0E0,0E0,0E0,0E0,0E0,0E0,0E0,0E0,0E0,0E0,0E0,0E0,0E0,0E0],"parents":[2147483647,0,0,1,1,2,2,3,3,4,4,5,5,6,6,7,7,8,8,9,9,10,10,11,11,12,12,13,13,14,14,16,16,17,17,18,18,19,19,20,20,21,21,22,22,23,23,24,24,25,25,26,26,27,27,38,38,39,39,40,40,41,41,42,42,43,43,44,44,46,46],"right_children":[2,4,6,8,10,12,14,16,18,20,22,24,26,28,30,-1,32,34,36,38,40,42,44,46,48,50,52,54,-1,-1,-1,-1,-1,-1,-1,-1,-1,-1,56,58,60,62,64,66,68,-1,70,-1,-1,-1,-1,-1,-1,-1,-1,-1,-1,-1,-1,-1,-1,-1,-1,-1,-1,-1,-1,-1,-1,-1,-1],"split_conditions":[2.9949686E-1,-5.460132E-1,1.4148294E0,-9.0594685E-1,-1.4512083E-1,8.2560784E-1,2.1680787E0,-1.0864872E0,-7.398177E-1,-3.560549E-1,6.353831E-2,5.2641344E-1,1.0969824E0,1.8287642E0,2.718173E0,-5.774258E1,-9.9379265E-1,-8.297842E-1,-6.4277565E-1,-4.679323E-1,-2.5516668E-1,-4.317224E-2,1.7572418E-1,3.8485566E-1,6.583412E-1,9.6106374E-1,1.2807038E0,1.5911187E0,1.0096095E2,1.2037575E2,1.4818437E2,-5.1928467E1,-4.750188E1,-4.351261E1,-3.920369E1,-3.4481304E1,-2.975823E1,-2.5231535E1,-4.098247E-1,-3.0399135E-1,-2.0291996E-1,-9.7771026E-2,8.4189875E-3,1.1489819E-1,2.3329197E-1,1.7234821E1,4.4493937E-1,2.9956564E1,3.722855E1,4.492185E1,5.1704945E1,5.9208504E1,6.790215E1,7.420249E1,8.5319824E1,-2.1684113E1,-1.9026619E1,-1.6344738E1,-1.3944968E1,-1.1342042E1,-8.5221815E0,-5.864437E0,-3.288729E0,-6.438228E-1,2.029655E0,4.7101927E0,7.413627E0,1.0485728E1,1.35401535E1,2.0925278E1,2.4010895E1],"split_indices":[2,2,2,2,2,2,2,2,2,2,2,2,2,2,2,0,2,2,2,2,2,2,2,2,2,2,2,2,0,0,0,0,0,0,0,0,0,0,2,2,2,2,2,2,2,0,2,0,0,0,0,0,0,0,0,0,0,0,0,0,0,0,0,0,0,0,0,0,0,0,0],"split_type":[0,0,0,0,0,0,0,0,0,0,0,0,0,0,0,0,0,0,0,0,0,0,0,0,0,0,0,0,0,0,0,0,0,0,0,0,0,0,0,0,0,0,0,0,0,0,0,0,0,0,0,0,0,0,0,0,0,0,0,0,0,0,0,0,0,0,0,0,0,0,0],"sum_hessian":[7.182E3,4.84E3,2.342E3,2.766E3,2.074E3,1.556E3,7.86E2,1.435E3,1.331E3,1.148E3,9.26E2,8.53E2,7.03E2,5.32E2,2.54E2,5.75E2,8.6E2,7.51E2,5.8E2,5.69E2,5.79E2,4.56E2,4.7E2,3.94E2,4.59E2,3.65E2,3.38E2,3.37E2,1.95E2,1.67E2,8.7E1,4.49E2,4.11E2,3.37E2,4.14E2,2.7E2,3.1E2,2.59E2,3.1E2,2.98E2,2.81E2,2.28E2,2.28E2,2.47E2,2.23E2,1.41E2,2.53E2,2.02E2,2.57E2,1.73E2,1.92E2,1.99E2,1.39E2,1.38E2,1.99E2,1.75E2,1.35E2,1.64E2,1.34E2,1.42E2,1.39E2,1.18E2,1.1E2,1.14E2,1.14E2,1.07E2,1.4E2,1.1E2,1.13E2,1.15E2,1.38E2],"tree_param":{"num_deleted":"0","num_feature":"6","num_nodes":"71","size_leaf_vector":"1"}},{"base_weights":[-3.173093E0,-3.3304715E2,7.1928455E2,-5.0911694E2,-6.766074E1,4.9857764E2,1.211064E3,-5.9535834E2,-3.9840173E2,-1.7404474E2,6.5426476E1,3.486242E2,6.8057965E2,1.077823E3,1.5530338E3,-6.431743E2,-5.426862E2,-4.4480222E2,-3.3532147E2,-2.2846341E2,-1.1708199E2,7.6971283E0,1.270769E2,2.730255E2,4.3632413E2,6.037672E2,7.781939E2,9.837967E2,9.747259E1,1.1675077E2,1.4150418E2,-5.4651722E1,-4.933353E1,-4.5255596E1,-4.137423E1,-3.729826E1,-3.3111996E1,-2.8635399E1,-2.4361994E1,-2.5112517E2,-1.55008545E1,-1.4635303E2,-8.5109024E1,-2.2885103E1,3.878658E1,9.727138E1,1.6173329E2,2.3982062E2,2.5744463E1,3.1625101E1,3.8027035E1,4.527116E1,5.1959576E1,5.7071648E1,6.4821014E1,7.344392E1,8.257238E1,-2.1109447E1,-1.8548605E1,-1.2811808E1,-1.0479851E1,-7.8317094E0,-5.386991E0,-3.052996E0,-5.820728E-1,1.8430134E0,4.3245687E0,6.506045E0,8.990292E0,1.1332606E1,1.3934749E1,1.6996336E1,2.0544024E1],"categories":[],"categories_nodes":[],"categories_segments":[],"categories_sizes":[],"default_left":[0,0,0,0,0,0,0,0,0,0,0,0,0,0,0,0,0,0,0,0,0,0,0,0,0,0,0,0,0,0,0,0,0,0,0,0,0,0,0,0,0,0,0,0,0,0,0,0,0,0,0,0,0,0,0,0,0,0,0,0,0,0,0,0,0,0,0,0,0,0,0,0,0],"id":7,"left_children":[1,3,5,7,9,11,13,15,17,19,21,23,25,27,29,31,33,35,37,39,41,43,45,47,49,51,53,55,-1,-1,-1,-1,-1,-1,-1,-1,-1,-1,-1,57,-1,59,61,63,65,67,69,71,-1,-1,-1,-1,-1,-1,-1,-1,-1,-1,-1,-1,-1,-1,-1,-1,-1,-1,-1,-1,-1,-1,-1,-1,-1],"loss_changes":[1.7197185E9,2.3144883E8,2.4491162E8,2.819744E7,2.8002444E7,4.241987E7,3.0221248E7,3.86208E6,3.676368E6,3.379972E6,3.1274165E6,5.576048E6,4.816224E6,5.503168E6,1.338688E6,5.01504E5,1.78128E5,3.03616E5,2.79732E5,3.92526E5,4.919845E5,4.3349472E5,4.232725E5,6.74384E5,4.45672E5,3.23552E5,5.992E4,3.488E4,0E0,0E0,0E0,0E0,0E0,0E0,0E0,0E0,0E0,0E0,0E0,2.1314E4,0E0,3.83295E4,5.24935E4,5.4569742E4,5.3106344E4,4.650825E4,2.4069E4,7.5551E4,0E0,0E0,0E0,0E0,0E0,0E0,0E0,0E0,0E0,0E0,0E0,0E0,0E0,0E0,0E0,0E0,0E0,0E0,0E0,0E0,0E0,0E0,0E0,0E0,0E0],"parents":[2147483647,0,0,1,1,2,2,3,3,4,4,5,5,6,6,7,7,8,8,9,9,10,10,11,11,12,12,13,13,14,14,15,15,16,16,17,17,18,18,19,19,20,20,21,21,22,22,23,23,24,24,25,25,26,26,27,27,39,39,41,41,42,42,43,43,44,44,45,45,46,46,47,47],"right_children":[2,4,6,8,10,12,14,16,18,20,22,24,26,28,30,32,34,36,38,40,42,44,46,48,50,52,54,56,-1,-1,-1,-1,-1,-1,-1,-1,-1,-1,-1,58,-1,60,62,64,66,68,70,72,-1,-1,-1,-1,-1,-1,-1,-1,-1,-1,-1,-1,-1,-1,-1,-1,-1,-1,-1,-1,-1,-1,-1,-1,-1],"split_conditions":[3.3215585E-1,-4.9650413E-1,1.5194578E0,-8.5707396E-1,-9.7771026E-2,8.9822304E-1,2.3217728E0,-1.0238683E0,-6.727549E-1,-3.0399135E-1,1.1489819E-1,6.1968637E-1,1.1924917E0,1.9374412E0,2.881015E0,-1.1314464E0,-9.367647E-1,-7.627311E-1,-5.7440186E-1,-3.7808144E-1,-2.0291996E-1,8.4189875E-3,2.2088577E-1,4.891756E-1,7.438542E-1,1.0525436E0,1.310442E0,1.6615939E0,9.747259E1,1.1675077E2,1.4150418E2,-5.4651722E1,-4.933353E1,-4.5255596E1,-4.137423E1,-3.729826E1,-3.3111996E1,-2.8635399E1,-2.4361994E1,-4.293931E-1,-1.55008545E1,-2.5516668E-1,-1.4512083E-1,-4.317224E-2,6.353831E-2,1.6126475E-1,2.6284704E-1,3.9863065E-1,2.5744463E1,3.1625101E1,3.8027035E1,4.527116E1,5.1959576E1,5.7071648E1,6.4821014E1,7.344392E1,8.257238E1,-2.1109447E1,-1.8548605E1,-1.2811808E1,-1.0479851E1,-7.8317094E0,-5.386991E0,-3.052996E0,-5.820728E-1,1.8430134E0,4.3245687E0,6.506045E0,8.990292E0,1.1332606E1,1.3934749E1,1.6996336E1,2.0544024E1],"split_indices":[2,2,2,2,2,2,2,2,2,2,2,2,2,2,2,2,2,2,2,2,2,2,2,2,2,2,2,2,0,0,0,0,0,0,0,0,0,0,0,2,0,2,2,2,2,2,2,2,0,0,0,0,0,0,0,0,0,0,0,0,0,0,0,0,0,0,0,0,0,0,0,0,0],"split_type":[0,0,0,0,0,0,0,0,0,0,0,0,0,0,0,0,0,0,0,0,0,0,0,0,0,0,0,0,0,0,0,0,0,0,0,0,0,0,0,0,0,0,0,0,0,0,0,0,0,0,0,0,0,0,0,0,0,0,0,0,0,0,0,0,0,0,0,0,0,0,0,0,0],"sum_hessian":[7.214E3,4.953E3,2.261E3,2.977E3,1.976E3,1.562E3,6.99E2,1.671E3,1.306E3,1.098E3,8.78E2,8.58E2,7.04E2,5.06E2,1.93E2,8.7E2,8.01E2,7.49E2,5.57E2,5.6E2,5.38E2,4.54E2,4.24E2,4.63E2,3.95E2,3.98E2,3.06E2,3.08E2,1.98E2,1.4E2,5.3E1,3.37E2,5.33E2,4.1E2,3.91E2,4.34E2,3.15E2,3.15E2,2.42E2,3.35E2,2.25E2,2.79E2,2.59E2,2.29E2,2.25E2,2.3E2,1.94E2,2.79E2,1.84E2,1.98E2,1.97E2,2.25E2,1.73E2,1.09E2,1.97E2,1.39E2,1.69E2,1.94E2,1.41E2,1.42E2,1.37E2,1.48E2,1.11E2,1.15E2,1.14E2,1.12E2,1.13E2,1.15E2,1.15E2,7.9E1,1.15E2,1.12E2,1.67E2],"tree_param":{"num_deleted":"0","num_feature":"6","num_nodes":"73","size_leaf_vector":"1"}},{"base_weights":[2.0065384E0,-3.1169473E2,6.4821173E2,-4.7504834E2,-7.978537E1,4.2369794E2,1.0678792E3,-5.5573145E2,-3.8408472E2,-1.7610512E2,4.472276E1,2.863322E2,5.715862E2,8.882216E2,1.3140287E3,-6.035371E2,-5.170097E2,-4.2791757E2,-3.2995963E2,-2.2769508E2,-1.2226203E2,-1.2030321E1,9.837033E1,2.1992587E2,3.497654E2,4.9956918E2,6.532187E2,6.481386E1,7.82031E1,9.300046E1,1.4640613E3,-5.1078907E1,-4.6505566E1,-4.2979298E1,-3.915046E1,-3.59784E1,-3.234243E1,-2.8145681E1,-2.3931454E1,-2.5348164E2,-1.9935466E2,-1.4690494E2,-9.143766E1,-3.5978794E1,1.7164886E1,6.8806E1,1.2802306E2,1.4630826E1,2.4021918E2,2.4913567E1,3.0237211E1,3.636727E1,4.2477924E1,4.9200516E1,5.6040356E1,1.0965543E2,1.296581E2,-2.128398E1,-1.8837627E1,-1.6794258E1,-1.4561908E1,-1.2682303E1,-1.0554472E1,-8.2581625E0,-6.0105577E0,-3.9892654E0,-1.6946424E0,5.0885504E-1,2.5229793E0,4.4488316E0,6.5487843E0,8.9313135E0,1.1439542E1,1.7984865E1,2.0669706E1],"categories":[],"categories_nodes":[],"categories_segments":[],"categories_sizes":[],"default_left":[0,0,0,0,0,0,0,0,0,0,0,0,0,0,0,0,0,0,0,0,0,0,0,0,0,0,0,0,0,0,0,0,0,0,0,0,0,0,0,0,0,0,0,0,0,0,0,0,0,0,0,0,0,0,0,0,0,0,0,0,0,0,0,0,0,0,0,0,0,0,0,0,0,0,0],"id":8,"left_children":[1,3,5,7,9,11,13,15,17,19,21,23,25,27,29,31,33,35,37,39,41,43,45,47,49,51,53,-1,-1,-1,55,-1,-1,-1,-1,-1,-1,-1,-1,57,59,61,63,65,67,69,71,-1,73,-1,-1,-1,-1,-1,-1,-1,-1,-1,-1,-1,-1,-1,-1,-1,-1,-1,-1,-1,-1,-1,-1,-1,-1,-1,-1],"loss_changes":[1.4694833E9,1.8483226E8,2.2275731E8,2.0798784E7,2.4208928E7,3.1222656E7,3.5316544E7,2.492416E6,3.059248E6,3.133256E6,2.683533E6,3.305604E6,4.041728E6,2.554144E6,6.16384E6,1.5064E5,2.08864E5,2.00736E5,3.0436E5,3.73334E5,4.111855E5,3.0056606E5,3.883195E5,2.52976E5,3.24564E5,3.22232E5,1.92544E5,0E0,0E0,0E0,2.65152E5,0E0,0E0,0E0,0E0,0E0,0E0,0E0,0E0,5.262E3,1.3281E4,3.28685E4,4.049525E4,4.7434438E4,2.9924062E4,3.4893625E4,3.9218E4,0E0,1.2399E4,0E0,0E0,0E0,0E0,0E0,0E0,0E0,0E0,0E0,0E0,0E0,0E0,0E0,0E0,0E0,0E0,0E0,0E0,0E0,0E0,0E0,0E0,0E0,0E0,0E0,0E0],"parents":[2147483647,0,0,1,1,2,2,3,3,4,4,5,5,6,6,7,7,8,8,9,9,10,10,11,11,12,12,13,13,14,14,15,15,16,16,17,17,18,18,19,19,20,20,21,21,22,22,23,23,24,24,25,25,26,26,30,30,39,39,40,40,41,41,42,42,43,43,44,44,45,45,46,46,48,48],"right_children":[2,4,6,8,10,12,14,16,18,20,22,24,26,28,30,32,34,36,38,40,42,44,46,48,50,52,54,-1,-1,-1,56,-1,-1,-1,-1,-1,-1,-1,-1,58,60,62,64,66,68,70,72,-1,74,-1,-1,-1,-1,-1,-1,-1,-1,-1,-1,-1,-1,-1,-1,-1,-1,-1,-1,-1,-1,-1,-1,-1,-1,-1,-1],"split_conditions":[2.9949686E-1,-5.2967405E-1,1.3827199E0,-8.8841236E-1,-1.21831514E-1,7.853721E-1,2.0315046E0,-1.0646727E0,-7.1915036E-1,-3.314546E-1,7.458532E-2,5.2641344E-1,1.0687768E0,1.6615939E0,2.392489E0,-1.1479976E0,-9.635146E-1,-8.060997E-1,-6.099046E-1,-4.293931E-1,-2.2509108E-1,-1.8562298E-2,1.7572418E-1,3.8485566E-1,6.379245E-1,9.1400313E-1,1.2466856E0,6.481386E1,7.82031E1,9.300046E1,2.881015E0,-5.1078907E1,-4.6505566E1,-4.2979298E1,-3.915046E1,-3.59784E1,-3.234243E1,-2.8145681E1,-2.3931454E1,-4.780828E-1,-3.652993E-1,-2.7683654E-1,-1.6783176E-1,-6.886182E-2,3.6846217E-2,1.24933034E-1,2.3329197E-1,1.4630826E1,4.5683467E-1,2.4913567E1,3.0237211E1,3.636727E1,4.2477924E1,4.9200516E1,5.6040356E1,1.0965543E2,1.296581E2,-2.128398E1,-1.8837627E1,-1.6794258E1,-1.4561908E1,-1.2682303E1,-1.0554472E1,-8.2581625E0,-6.0105577E0,-3.9892654E0,-1.6946424E0,5.0885504E-1,2.5229793E0,4.4488316E0,6.5487843E0,8.9313135E0,1.1439542E1,1.7984865E1,2.0669706E1],"split_indices":[2,2,2,2,2,2,2,2,2,2,2,2,2,2,2,2,2,2,2,2,2,2,2,2,2,2,2,0,0,0,2,0,0,0,0,0,0,0,0,2,2,2,2,2,2,2,2,0,2,0,0,0,0,0,0,0,0,0,0,0,0,0,0,0,0,0,0,0,0,0,0,0,0,0,0],"split_type":[0,0,0,0,0,0,0,0,0,0,0,0,0,0,0,0,0,0,0,0,0,0,0,0,0,0,0,0,0,0,0,0,0,0,0,0,0,0,0,0,0,0,0,0,0,0,0,0,0,0,0,0,0,0,0,0,0,0,0,0,0,0,0,0,0,0,0,0,0,0,0,0,0,0,0],"sum_hessian":[7.247E3,4.879E3,2.368E3,2.862E3,2.017E3,1.544E3,8.24E2,1.514E3,1.348E3,1.137E3,8.8E2,8.02E2,7.42E2,4.79E2,3.45E2,6.71E2,8.43E2,7.41E2,6.07E2,5.79E2,5.58E2,4.28E2,4.52E2,3.94E2,4.08E2,3.98E2,3.44E2,2.61E2,2.18E2,1.76E2,1.69E2,2.5E2,4.21E2,4.76E2,3.67E2,3.76E2,3.65E2,3.49E2,2.58E2,2.99E2,2.8E2,3.08E2,2.5E2,2.35E2,1.93E2,2.28E2,2.24E2,1.43E2,2.51E2,1.78E2,2.3E2,1.7E2,2.28E2,1.98E2,1.46E2,1.12E2,5.7E1,1.68E2,1.31E2,1.67E2,1.13E2,1.68E2,1.4E2,1.42E2,1.08E2,1.2E2,1.15E2,1.11E2,8.2E1,1.16E2,1.12E2,1.11E2,1.13E2,1.43E2,1.08E2],"tree_param":{"num_deleted":"0","num_feature":"6","num_nodes":"75","size_leaf_vector":"1"}},{"base_weights":[3.803489E0,-2.7964877E2,6.156591E2,-4.2881567E2,-5.202707E1,4.26902E2,1.0297916E3,-5.0139224E2,-3.299527E2,-1.4171638E2,6.1110947E1,2.9427194E2,5.7029504E2,9.00992E2,1.2963927E3,-5.422562E2,-4.5280997E2,-3.714265E2,-2.7840784E2,-1.8542502E2,-9.150827E1,1.5626886E1,1.1813393E2,2.328052E2,3.5969205E2,5.0035144E2,6.5162665E2,6.517478E1,7.9872215E1,9.5486916E1,1.1627675E2,-4.6607796E1,-4.173065E1,-3.772579E1,-3.446572E1,-3.1186943E1,-2.7726898E1,-2.4062391E1,-2.0498634E1,-1.6741247E1,-1.5983406E2,-1.1302144E2,-6.413839E1,-1.2583688E1,4.1302563E1,9.306203E1,1.4311139E2,2.0718962E2,2.1535444E1,2.5939098E1,3.1395763E1,3.6535004E1,4.2379566E1,4.808986E1,5.4846035E1,-1.3483168E1,-1.1619659E1,-1.0094617E1,-8.0202055E0,-5.971466E0,-4.181921E0,-2.0398066E0,-3.457663E-2,2.0666442E0,4.318915E0,6.287963E0,8.208431E0,1.0125969E1,1.2478029E1,1.5169347E1,1.7662714E1],"categories":[],"categories_nodes":[],"categories_segments":[],"categories_sizes":[],"default_left":[0,0,0,0,0,0,0,0,0,0,0,0,0,0,0,0,0,0,0,0,0,0,0,0,0,0,0,0,0,0,0,0,0,0,0,0,0,0,0,0,0,0,0,0,0,0,0,0,0,0,0,0,0,0,0,0,0,0,0,0,0,0,0,0,0,0,0,0,0,0,0],"id":9,"left_children":[1,3,5,7,9,11,13,15,17,19,21,23,25,27,29,31,33,35,37,39,41,43,45,47,49,51,53,-1,-1,-1,-1,-1,-1,-1,-1,-1,-1,-1,-1,-1,55,57,59,61,63,65,67,69,-1,-1,-1,-1,-1,-1,-1,-1,-1,-1,-1,-1,-1,-1,-1,-1,-1,-1,-1,-1,-1,-1,-1],"loss_changes":[1.2435052E9,1.6635046E8,1.770073E8,2.107296E7,1.9704512E7,2.9519648E7,2.3212032E7,3.13936E6,2.5816E6,2.359706E6,2.226088E6,3.185464E6,3.93472E6,3.238912E6,1.962912E6,4.62304E5,1.20688E5,1.81816E5,2.02728E5,3.19192E5,2.906905E5,3.4747166E5,2.25276E5,3.37568E5,3.27972E5,2.80432E5,1.75952E5,0E0,0E0,0E0,0E0,0E0,0E0,0E0,0E0,0E0,0E0,0E0,0E0,0E0,1.1461E4,3.47415E4,2.4140812E4,3.592433E4,4.7854906E4,1.857325E4,2.04635E4,1.8337E4,0E0,0E0,0E0,0E0,0E0,0E0,0E0,0E0,0E0,0E0,0E0,0E0,0E0,0E0,0E0,0E0,0E0,0E0,0E0,0E0,0E0,0E0,0E0],"parents":[2147483647,0,0,1,1,2,2,3,3,4,4,5,5,6,6,7,7,8,8,9,9,10,10,11,11,12,12,13,13,14,14,15,15,16,16,17,17,18,18,19,19,20,20,21,21,22,22,23,23,24,24,25,25,26,26,40,40,41,41,42,42,43,43,44,44,45,45,46,46,47,47],"right_children":[2,4,6,8,10,12,14,16,18,20,22,24,26,28,30,32,34,36,38,40,42,44,46,48,50,52,54,-1,-1,-1,-1,-1,-1,-1,-1,-1,-1,-1,-1,-1,56,58,60,62,64,66,68,70,-1,-1,-1,-1,-1,-1,-1,-1,-1,-1,-1,-1,-1,-1,-1,-1,-1,-1,-1,-1,-1,-1,-1],"split_conditions":[3.5091457E-1,-4.85862E-1,1.5194578E0,-8.440412E-1,-8.504673E-2,8.714635E-1,2.250295E0,-1.0106235E0,-6.638093E-1,-2.8594598E-1,1.3514139E-1,5.9856594E-1,1.1624546E0,1.8287642E0,2.718173E0,-1.1380978E0,-9.224499E-1,-7.571979E-1,-5.7440186E-1,-3.7808144E-1,-1.818092E-1,1.9533465E-2,2.3329197E-1,4.891756E-1,7.2421837E-1,9.97328E-1,1.310442E0,6.517478E1,7.9872215E1,9.5486916E1,1.1627675E2,-4.6607796E1,-4.173065E1,-3.772579E1,-3.446572E1,-3.1186943E1,-2.7726898E1,-2.4062391E1,-2.0498634E1,-1.6741247E1,-3.1906772E-1,-2.3700565E-1,-1.3507634E-1,-3.087209E-2,7.458532E-2,1.7572418E-1,2.8672436E-1,4.138709E-1,2.1535444E1,2.5939098E1,3.1395763E1,3.6535004E1,4.2379566E1,4.808986E1,5.4846035E1,-1.3483168E1,-1.1619659E1,-1.0094617E1,-8.0202055E0,-5.971466E0,-4.181921E0,-2.0398066E0,-3.457663E-2,2.0666442E0,4.318915E0,6.287963E0,8.208431E0,1.0125969E1,1.2478029E1,1.5169347E1,1.7662714E1],"split_indices":[2,2,2,2,2,2,2,2,2,2,2,2,2,2,2,2,2,2,2,2,2,2,2,2,2,2,2,0,0,0,0,0,0,0,0,0,0,0,0,0,2,2,2,2,2,2,2,2,0,0,0,0,0,0,0,0,0,0,0,0,0,0,0,0,0,0,0,0,0,0,0],"split_type":[0,0,0,0,0,0,0,0,0,0,0,0,0,0,0,0,0,0,0,0,0,0,0,0,0,0,0,0,0,0,0,0,0,0,0,0,0,0,0,0,0,0,0,0,0,0,0,0,0,0,0,0,0,0,0,0,0,0,0,0,0,0,0,0,0,0,0,0,0,0,0],"sum_hessian":[7.168E3,4.899E3,2.269E3,2.959E3,1.94E3,1.56E3,7.09E2,1.704E3,1.255E3,1.082E3,8.58E2,8.12E2,7.48E2,4.81E2,2.28E2,9.2E2,7.84E2,6.92E2,5.63E2,5.77E2,5.05E2,4.78E2,3.8E2,4.21E2,3.91E2,4.06E2,3.42E2,2.6E2,2.21E2,1.43E2,8.5E1,3.02E2,6.18E2,4.12E2,3.72E2,3.89E2,3.03E2,2.74E2,2.89E2,2.95E2,2.82E2,2.81E2,2.24E2,2.28E2,2.5E2,1.92E2,1.88E2,2.51E2,1.7E2,1.93E2,1.98E2,1.7E2,2.36E2,1.45E2,1.97E2,1.7E2,1.12E2,1.34E2,1.47E2,1.16E2,1.08E2,1.1E2,1.18E2,1.14E2,1.36E2,8E1,1.12E2,8.7E1,1.01E2,1.16E2,1.35E2],"tree_param":{"num_deleted":"0","num_feature":"6","num_nodes":"71","size_leaf_vector":"1"}},{"base_weights":[-4.6530953E-1,-2.56715E2,5.6641113E2,-3.951093E2,-4.7088123E1,3.9562094E2,9.5818866E2,-4.602651E2,-3.0256354E2,-1.3128696E2,5.7877113E1,2.8042267E2,5.4059393E2,8.5145825E2,1.2267124E3,-5.0161682E2,-4.1848038E2,-3.3820535E2,-2.5453561E2,-1.7129514E2,-8.398935E1,1.483443E1,1.08845604E2,2.2162125E2,3.499496E2,4.7477933E2,6.120181E2,6.1933273E1,7.6320465E1,9.151741E1,1.1095414E2,-4.25023E1,-3.8313484E1,-3.51592E1,-3.1853498E1,-2.8357563E1,-2.5083061E1,-2.163065E1,-1.8475264E1,-1.9317514E2,-1.4743913E2,-1.0601425E2,-6.1273327E1,-1.2205119E1,3.8013596E1,8.192709E1,1.2899968E2,1.938444E2,2.0764242E1,2.559784E1,3.0878183E1,3.5201927E1,4.0132435E1,4.508998E1,5.1267693E1,-1.6262215E1,-1.4404371E1,-1.2582513E1,-1.0884127E1,-9.235344E0,-7.5542603E0,-5.902153E0,-4.0273466E0,-1.8934067E0,-4.2199396E-2,2.0711374E0,4.1938624E0,5.7746897E0,7.217517E0,9.195029E0,1.1474358E1,1.4242656E1,1.6660885E1],"categories":[],"categories_nodes":[],"categories_segments":[],"categories_sizes":[],"default_left":[0,0,0,0,0,0,0,0,0,0,0,0,0,0,0,0,0,0,0,0,0,0,0,0,0,0,0,0,0,0,0,0,0,0,0,0,0,0,0,0,0,0,0,0,0,0,0,0,0,0,0,0,0,0,0,0,0,0,0,0,0,0,0,0,0,0,0,0,0,0,0,0,0],"id":10,"left_children":[1,3,5,7,9,11,13,15,17,19,21,23,25,27,29,31,33,35,37,39,41,43,45,47,49,51,53,-1,-1,-1,-1,-1,-1,-1,-1,-1,-1,-1,-1,55,57,59,61,63,65,67,69,71,-1,-1,-1,-1,-1,-1,-1,-1,-1,-1,-1,-1,-1,-1,-1,-1,-1,-1,-1,-1,-1,-1,-1,-1,-1],"loss_changes":[1.0400754E9,1.4303549E8,1.4876723E8,1.7769568E7,1.7347656E7,2.5801216E7,1.8329472E7,2.798272E6,2.019424E6,2.04632E6,1.915784E6,3.471072E6,2.938832E6,3.121472E6,9.32192E5,3.31328E5,1.97136E5,1.70904E5,1.34988E5,2.78958E5,2.4416375E5,2.981722E5,2.06439E5,4.4805E5,3.04168E5,1.17392E5,9.3608E4,0E0,0E0,0E0,0E0,0E0,0E0,0E0,0E0,0E0,0E0,0E0,0E0,3.694E3,1.06565E4,1.67335E4,3.032E4,2.9435484E4,4.3368188E4,7.545375E3,2.9575E4,2.6064E4,0E0,0E0,0E0,0E0,0E0,0E0,0E0,0E0,0E0,0E0,0E0,0E0,0E0,0E0,0E0,0E0,0E0,0E0,0E0,0E0,0E0,0E0,0E0,0E0,0E0],"parents":[2147483647,0,0,1,1,2,2,3,3,4,4,5,5,6,6,7,7,8,8,9,9,10,10,11,11,12,12,13,13,14,14,15,15,16,16,17,17,18,18,19,19,20,20,21,21,22,22,23,23,24,24,25,25,26,26,39,39,40,40,41,41,42,42,43,43,44,44,45,45,46,46,47,47],"right_children":[2,4,6,8,10,12,14,16,18,20,22,24,26,28,30,32,34,36,38,40,42,44,46,48,50,52,54,-1,-1,-1,-1,-1,-1,-1,-1,-1,-1,-1,-1,56,58,60,62,64,66,68,70,72,-1,-1,-1,-1,-1,-1,-1,-1,-1,-1,-1,-1,-1,-1,-1,-1,-1,-1,-1,-1,-1,-1,-1,-1,-1],"split_conditions":[3.5091457E-1,-4.85862E-1,1.5546424E0,-8.367826E-1,-8.504673E-2,9.1400313E-1,2.3217728E0,-1.0238683E0,-6.5321535E-1,-2.8594598E-1,1.3514139E-1,6.379245E-1,1.1924917E0,1.9374412E0,2.881015E0,-1.1264917E0,-9.321184E-1,-7.4529296E-1,-5.544286E-1,-3.7808144E-1,-1.9129458E-1,1.9533465E-2,2.2088577E-1,5.072884E-1,7.853721E-1,1.0374384E0,1.3336735E0,6.1933273E1,7.6320465E1,9.151741E1,1.1095414E2,-4.25023E1,-3.8313484E1,-3.51592E1,-3.1853498E1,-2.8357563E1,-2.5083061E1,-2.163065E1,-1.8475264E1,-4.293931E-1,-3.314546E-1,-2.3700565E-1,-1.4512083E-1,-3.087209E-2,8.872663E-2,1.7572418E-1,2.8672436E-1,4.2685547E-1,2.0764242E1,2.559784E1,3.0878183E1,3.5201927E1,4.0132435E1,4.508998E1,5.1267693E1,-1.6262215E1,-1.4404371E1,-1.2582513E1,-1.0884127E1,-9.235344E0,-7.5542603E0,-5.902153E0,-4.0273466E0,-1.8934067E0,-4.2199396E-2,2.0711374E0,4.1938624E0,5.7746897E0,7.217517E0,9.195029E0,1.1474358E1,1.4242656E1,1.6660885E1],"split_indices":[2,2,2,2,2,2,2,2,2,2,2,2,2,2,2,2,2,2,2,2,2,2,2,2,2,2,2,0,0,0,0,0,0,0,0,0,0,0,0,2,2,2,2,2,2,2,2,2,0,0,0,0,0,0,0,0,0,0,0,0,0,0,0,0,0,0,0,0,0,0,0,0,0],"split_type":[0,0,0,0,0,0,0,0,0,0,0,0,0,0,0,0,0,0,0,0,0,0,0,0,0,0,0,0,0,0,0,0,0,0,0,0,0,0,0,0,0,0,0,0,0,0,0,0,0,0,0,0,0,0,0,0,0,0,0,0,0,0,0,0,0,0,0,0,0,0,0,0,0],"sum_hessian":[7.158E3,4.93E3,2.228E3,2.969E3,1.961E3,1.553E3,6.75E2,1.74E3,1.229E3,1.088E3,8.73E2,8.67E2,6.86E2,4.86E2,1.89E2,8.69E2,8.71E2,7.02E2,5.27E2,5.88E2,5E2,4.74E2,3.99E2,4.72E2,3.95E2,3.61E2,3.25E2,2.82E2,2.04E2,1.3E2,5.9E1,3.67E2,5.02E2,4.18E2,4.53E2,4.15E2,2.87E2,3.09E2,2.18E2,3.03E2,2.85E2,2.52E2,2.48E2,2.19E2,2.55E2,1.73E2,2.26E2,2.76E2,1.96E2,2.21E2,1.74E2,1.65E2,1.96E2,1.29E2,1.96E2,1.63E2,1.4E2,1.46E2,1.39E2,1.34E2,1.18E2,1.13E2,1.35E2,1.1E2,1.09E2,1.4E2,1.15E2,8.4E1,8.9E1,1.19E2,1.07E2,1.38E2,1.38E2],"tree_param":{"num_deleted":"0","num_feature":"6","num_nodes":"73","size_leaf_vector":"1"}},{"base_weights":[3.8079765E-1,-2.3600043E2,5.198733E2,-3.6466772E2,-4.6226852E1,3.6482486E2,8.851967E2,-4.295754E2,-2.8804224E2,-1.2333508E2,5.36601E1,2.5321913E2,4.9276672E2,7.830791E2,1.1229572E3,-4.6957935E2,-3.9772714E2,-3.2506552E2,-2.4388931E2,-1.6232188E2,-7.9279755E1,1.0509917E1,9.799003E1,2.0036772E2,3.1262155E2,4.3287665E2,5.623907E2,5.706476E1,7.028238E1,8.409773E1,1.0172991E2,-4.0121975E1,-3.6249634E1,-3.3160847E1,-3.00301E1,-2.7331308E1,-2.4353136E1,-2.1146963E1,-1.7752762E1,-1.4716906E1,-1.4162473E2,-1.0255561E2,-5.780539E1,-1.4374027E1,3.013388E1,7.26606E1,1.19699715E2,1.7861046E2,1.8822443E1,2.2923784E1,2.768825E1,3.1691233E1,3.6664574E1,4.1529907E1,4.729885E1,-1.2081875E1,-1.0318061E1,-9.069656E0,-7.512973E0,-5.5394697E0,-3.7281137E0,-1.9860164E0,-4.502712E-1,1.2557323E0,3.3222456E0,4.872184E0,6.446553E0,8.481434E0,1.0578532E1,1.283508E1,1.5157442E1],"categories":[],"categories_nodes":[],"categories_segments":[],"categories_sizes":[],"default_left":[0,0,0,0,0,0,0,0,0,0,0,0,0,0,0,0,0,0,0,0,0,0,0,0,0,0,0,0,0,0,0,0,0,0,0,0,0,0,0,0,0,0,0,0,0,0,0,0,0,0,0,0,0,0,0,0,0,0,0,0,0,0,0,0,0,0,0,0,0,0,0],"id":11,"left_children":[1,3,5,7,9,11,13,15,17,19,21,23,25,27,29,31,33,35,37,39,41,43,45,47,49,51,53,-1,-1,-1,-1,-1,-1,-1,-1,-1,-1,-1,-1,-1,55,57,59,61,63,65,67,69,-1,-1,-1,-1,-1,-1,-1,-1,-1,-1,-1,-1,-1,-1,-1,-1,-1,-1,-1,-1,-1,-1,-1],"loss_changes":[8.839018E8,1.2077728E8,1.2718003E8,1.4538368E7,1.5410832E7,2.2464688E7,1.5387872E7,1.844064E6,2.13572E6,1.926274E6,1.6669705E6,2.596516E6,2.825504E6,2.516704E6,7.8552E5,1.41344E5,1.7976E5,1.47256E5,2.20892E5,2.41775E5,2.599835E5,2.1675964E5,2.27757E5,3.0056E5,2.47408E5,1.92136E5,1.13664E5,0E0,0E0,0E0,0E0,0E0,0E0,0E0,0E0,0E0,0E0,0E0,0E0,0E0,1.7376E4,1.3097E4,3.2527188E4,1.777511E4,4.014428E4,1.381375E4,2.541675E4,2.5241E4,0E0,0E0,0E0,0E0,0E0,0E0,0E0,0E0,0E0,0E0,0E0,0E0,0E0,0E0,0E0,0E0,0E0,0E0,0E0,0E0,0E0,0E0,0E0],"parents":[2147483647,0,0,1,1,2,2,3,3,4,4,5,5,6,6,7,7,8,8,9,9,10,10,11,11,12,12,13,13,14,14,15,15,16,16,17,17,18,18,19,19,20,20,21,21,22,22,23,23,24,24,25,25,26,26,40,40,41,41,42,42,43,43,44,44,45,45,46,46,47,47],"right_children":[2,4,6,8,10,12,14,16,18,20,22,24,26,28,30,32,34,36,38,40,42,44,46,48,50,52,54,-1,-1,-1,-1,-1,-1,-1,-1,-1,-1,-1,-1,-1,56,58,60,62,64,66,68,70,-1,-1,-1,-1,-1,-1,-1,-1,-1,-1,-1,-1,-1,-1,-1,-1,-1,-1,-1,-1,-1,-1,-1],"split_conditions":[3.5091457E-1,-4.9650413E-1,1.5546424E0,-8.7108034E-1,-8.504673E-2,8.9822304E-1,2.3217728E0,-1.0598336E0,-6.912244E-1,-2.958073E-1,1.24933034E-1,6.1968637E-1,1.1924917E0,1.9374412E0,2.881015E0,-1.155102E0,-9.504915E-1,-7.818175E-1,-5.940956E-1,-3.9972237E-1,-2.0291996E-1,8.4189875E-3,2.2088577E-1,5.072884E-1,7.632106E-1,1.0204438E0,1.3336735E0,5.706476E1,7.028238E1,8.409773E1,1.0172991E2,-4.0121975E1,-3.6249634E1,-3.3160847E1,-3.00301E1,-2.7331308E1,-2.4353136E1,-2.1146963E1,-1.7752762E1,-1.4716906E1,-3.3742154E-1,-2.5516668E-1,-1.4512083E-1,-4.317224E-2,6.353831E-2,1.6126475E-1,2.8672436E-1,4.138709E-1,1.8822443E1,2.2923784E1,2.768825E1,3.1691233E1,3.6664574E1,4.1529907E1,4.729885E1,-1.2081875E1,-1.0318061E1,-9.069656E0,-7.512973E0,-5.5394697E0,-3.7281137E0,-1.9860164E0,-4.502712E-1,1.2557323E0,3.3222456E0,4.872184E0,6.446553E0,8.481434E0,1.0578532E1,1.283508E1,1.5157442E1],"split_indices":[2,2,2,2,2,2,2,2,2,2,2,2,2,2,2,2,2,2,2,2,2,2,2,2,2,2,2,0,0,0,0,0,0,0,0,0,0,0,0,0,2,2,2,2,2,2,2,2,0,0,0,0,0,0,0,0,0,0,0,0,0,0,0,0,0,0,0,0,0,0,0],"split_type":[0,0,0,0,0,0,0,0,0,0,0,0,0,0,0,0,0,0,0,0,0,0,0,0,0,0,0,0,0,0,0,0,0,0,0,0,0,0,0,0,0,0,0,0,0,0,0,0,0,0,0,0,0,0,0,0,0,0,0,0,0,0,0,0,0,0,0,0,0,0,0],"sum_hessian":[7.196E3,4.946E3,2.25E3,2.947E3,1.999E3,1.581E3,6.69E2,1.593E3,1.354E3,1.128E3,8.71E2,8.46E2,7.35E2,4.71E2,1.98E2,7E2,8.93E2,7.33E2,6.21E2,5.97E2,5.31E2,4.42E2,4.29E2,4.5E2,3.96E2,3.99E2,3.36E2,2.77E2,1.94E2,1.39E2,5.9E1,2.28E2,4.72E2,5E2,3.93E2,3.98E2,3.35E2,3.16E2,3.05E2,2.88E2,3.09E2,2.53E2,2.78E2,1.95E2,2.47E2,2E2,2.29E2,2.81E2,1.69E2,2.28E2,1.68E2,1.7E2,2.29E2,1.42E2,1.94E2,1.71E2,1.38E2,1.07E2,1.46E2,1.35E2,1.43E2,8.8E1,1.07E2,1.1E2,1.37E2,8.4E1,1.16E2,1.14E2,1.15E2,1.11E2,1.7E2],"tree_param":{"num_deleted":"0","num_feature":"6","num_nodes":"71","size_leaf_vector":"1"}},{"base_weights":[-1.1163847E0,-2.2431627E2,4.6417807E2,-3.4477838E2,-6.1677197E1,3.133765E2,7.838859E2,-4.0367728E2,-2.839239E2,-1.3648466E2,2.5260172E1,2.1248761E2,4.2823688E2,6.6962085E2,9.728884E2,-3.5317665E1,-3.7987115E2,-3.1262204E2,-2.4167216E2,-1.7169113E2,-9.94162E1,-2.0072742E1,6.640544E1,1.6182793E2,2.6312402E2,3.7459518E2,4.890334E2,4.8369965E1,5.911207E1,7.232079E1,9.070276E1,-3.1612091E1,-2.9003365E1,-2.6237022E1,-2.338795E1,-2.0568869E1,-1.7739115E1,-1.5196818E1,-1.5383229E2,-1.1620895E2,-7.846485E1,-3.973258E1,2.8484082E-1,4.5403576E1,9.183325E1,1.407503E2,1.48037815E1,1.891547E1,2.3313267E1,2.7303024E1,3.1748814E1,3.6461945E1,4.1557255E1,-1.2980474E1,-1.15345545E1,-1.0043705E1,-8.620144E0,-6.922249E0,-5.3298717E0,-3.9218893E0,-2.4209838E0,-7.971258E-1,8.071628E-1,2.6611316E0,4.5570164E0,6.415833E0,8.197413E0,1.0143904E1,1.2325436E1],"categories":[],"categories_nodes":[],"categories_segments":[],"categories_sizes":[],"default_left":[0,0,0,0,0,0,0,0,0,0,0,0,0,0,0,0,0,0,0,0,0,0,0,0,0,0,0,0,0,0,0,0,0,0,0,0,0,0,0,0,0,0,0,0,0,0,0,0,0,0,0,0,0,0,0,0,0,0,0,0,0,0,0,0,0,0,0,0,0],"id":12,"left_children":[1,3,5,7,9,11,13,15,17,19,21,23,25,27,29,-1,31,33,35,37,39,41,43,45,47,49,51,-1,-1,-1,-1,-1,-1,-1,-1,-1,-1,-1,53,55,57,59,61,63,65,67,-1,-1,-1,-1,-1,-1,-1,-1,-1,-1,-1,-1,-1,-1,-1,-1,-1,-1,-1,-1,-1,-1,-1],"loss_changes":[7.493045E8,9.550856E7,1.125233E8,9.924896E6,1.3504849E7,1.8345728E7,1.5524224E7,1.1108E6,1.598968E6,1.439366E6,1.7938238E6,2.135296E6,2.239904E6,1.669632E6,2.078096E6,0E0,8.9488E4,1.58832E5,1.1625E5,1.57076E5,1.82981E5,1.8331517E5,2.64982E5,1.82932E5,2.50394E5,1.60452E5,1.12432E5,0E0,0E0,0E0,0E0,0E0,0E0,0E0,0E0,0E0,0E0,0E0,5.045E2,1.024125E4,1.77235E4,1.9017812E4,2.2810701E4,3.71145E4,1.9870375E4,2.2827E4,0E0,0E0,0E0,0E0,0E0,0E0,0E0,0E0,0E0,0E0,0E0,0E0,0E0,0E0,0E0,0E0,0E0,0E0,0E0,0E0,0E0,0E0,0E0],"parents":[2147483647,0,0,1,1,2,2,3,3,4,4,5,5,6,6,7,7,8,8,9,9,10,10,11,11,12,12,13,13,14,14,16,16,17,17,18,18,19,19,20,20,21,21,22,22,23,23,24,24,25,25,26,26,38,38,39,39,40,40,41,41,42,42,43,43,44,44,45,45],"right_children":[2,4,6,8,10,12,14,16,18,20,22,24,26,28,30,-1,32,34,36,38,40,42,44,46,48,50,52,-1,-1,-1,-1,-1,-1,-1,-1,-1,-1,-1,54,56,58,60,62,64,66,68,-1,-1,-1,-1,-1,-1,-1,-1,-1,-1,-1,-1,-1,-1,-1,-1,-1,-1,-1,-1,-1,-1,-1],"split_conditions":[2.9949686E-1,-5.460132E-1,1.4528962E0,-9.136007E-1,-1.5630278E-1,8.2560784E-1,2.1133063E0,-1.0921167E0,-7.282598E-1,-3.560549E-1,5.214429E-2,5.50551E-1,1.1194812E0,1.7359539E0,2.718173E0,-3.5317665E1,-9.9992347E-1,-8.103508E-1,-6.24017E-1,-4.5867828E-1,-2.5516668E-1,-5.4122843E-2,1.7572418E-1,4.2685547E-1,6.8806976E-1,9.6106374E-1,1.2807038E0,4.8369965E1,5.911207E1,7.232079E1,9.070276E1,-3.1612091E1,-2.9003365E1,-2.6237022E1,-2.338795E1,-2.0568869E1,-1.7739115E1,-1.5196818E1,-4.098247E-1,-3.111343E-1,-2.0291996E-1,-1.0771911E-1,-4.0835952E-3,1.1489819E-1,2.3329197E-1,3.6643434E-1,1.48037815E1,1.891547E1,2.3313267E1,2.7303024E1,3.1748814E1,3.6461945E1,4.1557255E1,-1.2980474E1,-1.15345545E1,-1.0043705E1,-8.620144E0,-6.922249E0,-5.3298717E0,-3.9218893E0,-2.4209838E0,-7.971258E-1,8.071628E-1,2.6611316E0,4.5570164E0,6.415833E0,8.197413E0,1.0143904E1,1.2325436E1],"split_indices":[3,3,3,3,3,3,3,3,3,3,3,3,3,3,3,0,3,3,3,3,3,3,3,3,3,3,3,0,0,0,0,0,0,0,0,0,0,0,3,3,3,3,3,3,3,3,0,0,0,0,0,0,0,0,0,0,0,0,0,0,0,0,0,0,0,0,0,0,0],"split_type":[0,0,0,0,0,0,0,0,0,0,0,0,0,0,0,0,0,0,0,0,0,0,0,0,0,0,0,0,0,0,0,0,0,0,0,0,0,0,0,0,0,0,0,0,0,0,0,0,0,0,0,0,0,0,0,0,0,0,0,0,0,0,0,0,0,0,0,0,0],"sum_hessian":[7.213E3,4.875E3,2.338E3,2.8E3,2.075E3,1.59E3,7.48E2,1.42E3,1.38E3,1.115E3,9.6E2,8.48E2,7.42E2,4.69E2,2.79E2,5.42E2,8.78E2,8.18E2,5.62E2,5.7E2,5.45E2,4.57E2,5.03E2,4.26E2,4.22E2,3.98E2,3.44E2,2.47E2,2.22E2,2E2,7.9E1,4.55E2,4.23E2,4.57E2,3.61E2,3.1E2,2.52E2,2.77E2,2.93E2,3E2,2.45E2,2.32E2,2.25E2,2.77E2,2.26E2,2.27E2,1.99E2,2.22E2,2E2,1.66E2,2.32E2,1.72E2,1.72E2,1.48E2,1.45E2,1.36E2,1.64E2,1.42E2,1.03E2,1.15E2,1.17E2,1.1E2,1.15E2,1.37E2,1.4E2,1.12E2,1.14E2,1.16E2,1.11E2],"tree_param":{"num_deleted":"0","num_feature":"6","num_nodes":"69","size_leaf_vector":"1"}},{"base_weights":[-2.731011E-1,-2.0278189E2,4.3738727E2,-3.1305994E2,-4.6967594E1,2.968983E2,7.299246E2,-3.6409552E2,-2.4798718E2,-1.1423056E2,3.4993988E1,2.045939E2,4.011593E2,6.370201E2,9.3187854E2,-4.033751E2,-3.4064844E2,-2.753536E2,-2.1056982E2,-1.4673718E2,-7.8803505E1,-4.7399745E0,7.2155594E1,1.5999884E2,2.5158815E2,3.4772183E2,4.5363623E2,5.7560333E2,5.7331547E1,6.875387E1,8.352385E1,-3.433335E1,-3.1117462E1,-2.8691475E1,-2.5758842E1,-2.3155293E1,-2.0623583E1,-1.7875689E1,-1.5337402E1,-1.636774E2,-1.2833109E2,-9.576952E1,-6.0164062E1,-2.332052E1,1.38617325E1,5.213326E1,9.55055E1,1.3956601E2,1.45578985E1,1.7799925E1,2.1801672E1,2.5659863E1,2.9467157E1,3.358689E1,3.851014E1,4.2424633E1,4.8216114E1,-1.3805922E1,-1.217709E1,-1.0933246E1,-9.518036E0,-8.26724E0,-6.983335E0,-5.438117E0,-3.9903924E0,-2.625773E0,-1.1352972E0,3.281783E-1,1.8330243E0,3.2848134E0,4.8444657E0,6.6829815E0,8.54537E0,9.562611E0,1.16933155E1],"categories":[],"categories_nodes":[],"categories_segments":[],"categories_sizes":[],"default_left":[0,0,0,0,0,0,0,0,0,0,0,0,0,0,0,0,0,0,0,0,0,0,0,0,0,0,0,0,0,0,0,0,0,0,0,0,0,0,0,0,0,0,0,0,0,0,0,0,0,0,0,0,0,0,0,0,0,0,0,0,0,0,0,0,0,0,0,0,0,0,0,0,0,0,0],"id":13,"left_children":[1,3,5,7,9,11,13,15,17,19,21,23,25,27,29,31,33,35,37,39,41,43,45,47,49,51,53,55,-1,-1,-1,-1,-1,-1,-1,-1,-1,-1,-1,57,59,61,63,65,67,69,71,73,-1,-1,-1,-1,-1,-1,-1,-1,-1,-1,-1,-1,-1,-1,-1,-1,-1,-1,-1,-1,-1,-1,-1,-1,-1,-1,-1],"loss_changes":[6.3964326E8,8.47657E7,9.361066E7,9.50416E6,1.1283552E7,1.4777008E7,1.329056E7,1.35184E6,1.245544E6,1.282851E6,1.3632235E6,1.680324E6,1.872528E6,2.081536E6,9.80128E5,5.5648E4,2.26736E5,1.06452E5,8.873E4,1.61401E5,1.65006E5,1.5481983E5,2.18028E5,1.64982E5,1.81712E5,8.3736E4,1.3732E5,4.0016E4,0E0,0E0,0E0,0E0,0E0,0E0,0E0,0E0,0E0,0E0,0E0,4.4305E3,5.9625E3,9.01525E3,1.7498688E4,1.8964727E4,1.9692812E4,2.1668875E4,2.0725125E4,1.21475E4,0E0,0E0,0E0,0E0,0E0,0E0,0E0,0E0,0E0,0E0,0E0,0E0,0E0,0E0,0E0,0E0,0E0,0E0,0E0,0E0,0E0,0E0,0E0,0E0,0E0,0E0,0E0],"parents":[2147483647,0,0,1,1,2,2,3,3,4,4,5,5,6,6,7,7,8,8,9,9,10,10,11,11,12,12,13,13,14,14,15,15,16,16,17,17,18,18,19,19,20,20,21,21,22,22,23,23,24,24,25,25,26,26,27,27,39,39,40,40,41,41,42,42,43,43,44,44,45,45,46,46,47,47],"right_children":[2,4,6,8,10,12,14,16,18,20,22,24,26,28,30,32,34,36,38,40,42,44,46,48,50,52,54,56,-1,-1,-1,-1,-1,-1,-1,-1,-1,-1,-1,58,60,62,64,66,68,70,72,74,-1,-1,-1,-1,-1,-1,-1,-1,-1,-1,-1,-1,-1,-1,-1,-1,-1,-1,-1,-1,-1,-1,-1,-1,-1,-1,-1],"split_conditions":[3.3215585E-1,-5.2042E-1,1.4805042E0,-8.7108034E-1,-1.21831514E-1,8.5073835E-1,2.250295E0,-1.0818795E0,-6.912244E-1,-3.1906772E-1,8.872663E-2,5.8490664E-1,1.1194812E0,1.8287642E0,2.718173E0,-1.1632668E0,-9.773475E-1,-7.818175E-1,-5.940956E-1,-4.2224053E-1,-2.2509108E-1,-1.8562298E-2,2.0284042E-1,4.5683467E-1,6.8806976E-1,9.7878134E-1,1.2807038E0,1.614196E0,5.7331547E1,6.875387E1,8.352385E1,-3.433335E1,-3.1117462E1,-2.8691475E1,-2.5758842E1,-2.3155293E1,-2.0623583E1,-1.7875689E1,-1.5337402E1,-4.679323E-1,-3.652993E-1,-2.7683654E-1,-1.6783176E-1,-6.886182E-2,3.6846217E-2,1.3514139E-1,2.6284704E-1,3.6643434E-1,1.45578985E1,1.7799925E1,2.1801672E1,2.5659863E1,2.9467157E1,3.358689E1,3.851014E1,4.2424633E1,4.8216114E1,-1.3805922E1,-1.217709E1,-1.0933246E1,-9.518036E0,-8.26724E0,-6.983335E0,-5.438117E0,-3.9903924E0,-2.625773E0,-1.1352972E0,3.281783E-1,1.8330243E0,3.2848134E0,4.8444657E0,6.6829815E0,8.54537E0,9.562611E0,1.16933155E1],"split_indices":[2,2,2,2,2,2,2,2,2,2,2,2,2,2,2,2,2,2,2,2,2,2,2,2,2,2,2,2,0,0,0,0,0,0,0,0,0,0,0,2,2,2,2,2,2,2,2,2,0,0,0,0,0,0,0,0,0,0,0,0,0,0,0,0,0,0,0,0,0,0,0,0,0,0,0],"split_type":[0,0,0,0,0,0,0,0,0,0,0,0,0,0,0,0,0,0,0,0,0,0,0,0,0,0,0,0,0,0,0,0,0,0,0,0,0,0,0,0,0,0,0,0,0,0,0,0,0,0,0,0,0,0,0,0,0,0,0,0,0,0,0,0,0,0,0,0,0,0,0,0,0,0,0],"sum_hessian":[7.215E3,4.933E3,2.282E3,2.888E3,2.045E3,1.543E3,7.39E2,1.616E3,1.272E3,1.123E3,9.22E2,8.2E2,7.23E2,5.09E2,2.3E2,5.98E2,1.018E3,7.31E2,5.41E2,5.84E2,5.39E2,4.46E2,4.76E2,4.23E2,3.97E2,3.62E2,3.61E2,2.92E2,2.17E2,1.45E2,8.5E1,2.04E2,3.94E2,5.09E2,5.09E2,3.97E2,3.34E2,3.15E2,2.26E2,3E2,2.84E2,2.8E2,2.59E2,2.23E2,2.23E2,2.58E2,2.18E2,2.23E2,2E2,1.71E2,2.26E2,1.64E2,1.98E2,1.7E2,1.91E2,1.17E2,1.75E2,1.61E2,1.39E2,1.43E2,1.41E2,1.42E2,1.38E2,1.44E2,1.15E2,1.08E2,1.15E2,1.08E2,1.15E2,1.14E2,1.44E2,1.1E2,1.08E2,6E1,1.63E2],"tree_param":{"num_deleted":"0","num_feature":"6","num_nodes":"75","size_leaf_vector":"1"}},{"base_weights":[-6.144699E-1,-1.8387486E2,4.060688E2,-2.8297382E2,-3.4235657E1,2.8394672E2,6.89695E2,-3.3119498E2,-2.1803091E2,-9.410845E1,4.0967007E1,1.9929512E2,3.8791495E2,6.166633E2,9.013401E2,-3.6212924E2,-3.025444E2,-2.4393564E2,-1.8208012E2,-1.2138406E2,-5.867556E1,1.0702253E1,7.834831E1,1.582464E2,2.5014287E2,3.4486722E2,3.542225E1,4.4401142E1,5.5321766E1,6.732846E1,8.003757E1,-3.1235334E1,-2.791232E1,-2.5410648E1,-2.294535E1,-2.054985E1,-1.8213099E1,-1.5611004E1,-1.3364134E1,-1.3830426E2,-1.0456133E2,-7.3533966E1,-4.2148067E1,-6.3894773E0,2.9435217E1,6.349879E1,9.794648E1,1.3852722E2,1.4913131E1,1.8113628E1,2.1873825E1,2.5494324E1,2.9486603E1,-1.1648973E1,-1.0298861E1,-8.911633E0,-7.6192656E0,-6.4030004E0,-5.1921697E0,-3.8416796E0,-2.5500312E0,-1.2063296E0,3.1206203E-1,1.6948564E0,3.0058568E0,4.2953076E0,5.80668E0,7.128055E0,8.442871E0,1.0006607E1,1.1759575E1],"categories":[],"categories_nodes":[],"categories_segments":[],"categories_sizes":[],"default_left":[0,0,0,0,0,0,0,0,0,0,0,0,0,0,0,0,0,0,0,0,0,0,0,0,0,0,0,0,0,0,0,0,0,0,0,0,0,0,0,0,0,0,0,0,0,0,0,0,0,0,0,0,0,0,0,0,0,0,0,0,0,0,0,0,0,0,0,0,0,0,0],"id":14,"left_children":[1,3,5,7,9,11,13,15,17,19,21,23,25,27,29,31,33,35,37,39,41,43,45,47,49,51,-1,-1,-1,-1,-1,-1,-1,-1,-1,-1,-1,-1,-1,53,55,57,59,61,63,65,67,69,-1,-1,-1,-1,-1,-1,-1,-1,-1,-1,-1,-1,-1,-1,-1,-1,-1,-1,-1,-1,-1,-1,-1],"loss_changes":[5.3862074E8,7.386883E7,7.756429E7,9.313248E6,8.946006E6,1.3749184E7,9.877504E6,1.413072E6,1.14764E6,1.061777E6,9.958685E5,1.772136E6,1.509968E6,1.946768E6,1.7056E5,1.71192E5,1.22008E5,9.7512E4,7.3368E4,1.63156E5,1.15512E5,1.5643531E5,1.0844375E5,2.42456E5,1.51264E5,1.30344E5,0E0,0E0,0E0,0E0,0E0,0E0,0E0,0E0,0E0,0E0,0E0,0E0,0E0,2.791E3,9.5825E3,9.008125E3,1.2405719E4,2.2949988E4,1.48463125E4,1.6328125E4,1.87525E3,1.44E4,0E0,0E0,0E0,0E0,0E0,0E0,0E0,0E0,0E0,0E0,0E0,0E0,0E0,0E0,0E0,0E0,0E0,0E0,0E0,0E0,0E0,0E0,0E0],"parents":[2147483647,0,0,1,1,2,2,3,3,4,4,5,5,6,6,7,7,8,8,9,9,10,10,11,11,12,12,13,13,14,14,15,15,16,16,17,17,18,18,19,19,20,20,21,21,22,22,23,23,24,24,25,25,39,39,40,40,41,41,42,42,43,43,44,44,45,45,46,46,47,47],"right_children":[2,4,6,8,10,12,14,16,18,20,22,24,26,28,30,32,34,36,38,40,42,44,46,48,50,52,-1,-1,-1,-1,-1,-1,-1,-1,-1,-1,-1,-1,-1,54,56,58,60,62,64,66,68,70,-1,-1,-1,-1,-1,-1,-1,-1,-1,-1,-1,-1,-1,-1,-1,-1,-1,-1,-1,-1,-1,-1,-1],"split_conditions":[3.5091457E-1,-4.85862E-1,1.5546424E0,-8.440412E-1,-8.504673E-2,9.1400313E-1,2.392489E0,-1.0365347E0,-6.5321535E-1,-2.7683654E-1,1.3514139E-1,6.379245E-1,1.2237047E0,1.9374412E0,2.881015E0,-1.1479976E0,-9.367647E-1,-7.571979E-1,-5.646466E-1,-3.7808144E-1,-1.818092E-1,3.6846217E-2,2.5338092E-1,5.072884E-1,7.632106E-1,1.0525436E0,3.542225E1,4.4401142E1,5.5321766E1,6.732846E1,8.003757E1,-3.1235334E1,-2.791232E1,-2.5410648E1,-2.294535E1,-2.054985E1,-1.8213099E1,-1.5611004E1,-1.3364134E1,-4.293931E-1,-3.1906772E-1,-2.2509108E-1,-1.21831514E-1,-1.8562298E-2,8.872663E-2,1.9153315E-1,2.9949686E-1,4.138709E-1,1.4913131E1,1.8113628E1,2.1873825E1,2.5494324E1,2.9486603E1,-1.1648973E1,-1.0298861E1,-8.911633E0,-7.6192656E0,-6.4030004E0,-5.1921697E0,-3.8416796E0,-2.5500312E0,-1.2063296E0,3.1206203E-1,1.6948564E0,3.0058568E0,4.2953076E0,5.80668E0,7.128055E0,8.442871E0,1.0006607E1,1.1759575E1],"split_indices":[3,3,3,3,3,3,3,3,3,3,3,3,3,3,3,3,3,3,3,3,3,3,3,3,3,3,0,0,0,0,0,0,0,0,0,0,0,0,0,3,3,3,3,3,3,3,3,3,0,0,0,0,0,0,0,0,0,0,0,0,0,0,0,0,0,0,0,0,0,0,0],"split_type":[0,0,0,0,0,0,0,0,0,0,0,0,0,0,0,0,0,0,0,0,0,0,0,0,0,0,0,0,0,0,0,0,0,0,0,0,0,0,0,0,0,0,0,0,0,0,0,0,0,0,0,0,0,0,0,0,0,0,0,0,0,0,0,0,0,0,0,0,0,0,0],"sum_hessian":[7.225E3,4.981E3,2.244E3,2.996E3,1.985E3,1.57E3,6.74E2,1.717E3,1.279E3,1.105E3,8.8E2,8.67E2,7.03E2,5.04E2,1.7E2,8.2E2,8.97E2,7.4E2,5.39E2,6.23E2,4.82E2,4.87E2,3.93E2,4.82E2,3.85E2,3.98E2,3.05E2,2.81E2,2.23E2,1.12E2,5.8E1,2.52E2,5.68E2,4.48E2,4.49E2,4.04E2,3.36E2,2.82E2,2.57E2,3.07E2,3.16E2,2.52E2,2.3E2,2.55E2,2.32E2,2.26E2,1.67E2,2.87E2,1.95E2,1.96E2,1.89E2,1.96E2,2.02E2,1.66E2,1.41E2,1.76E2,1.4E2,1.39E2,1.13E2,1.44E2,8.6E1,1.38E2,1.17E2,1.17E2,1.15E2,1.12E2,1.14E2,8.3E1,8.4E1,1.17E2,1.7E2],"tree_param":{"num_deleted":"0","num_feature":"6","num_nodes":"71","size_leaf_vector":"1"}},{"base_weights":[-2.2933079E-2,-1.7374236E2,3.6680157E2,-2.6771823E2,-4.5414158E1,2.4332666E2,6.0667786E2,-3.1456604E2,-2.1977255E2,-1.0028216E2,2.685091E1,1.6772232E2,3.2951154E2,5.235082E2,7.794951E2,-3.4623273E2,-2.966066E2,-2.4305096E2,-1.8679718E2,-1.3016042E2,-6.9874054E1,-4.174848E0,5.9455387E1,1.2815157E2,2.0436386E2,2.8860654E2,3.7279504E2,3.6792946E1,5.7975745E2,5.7524998E1,7.140156E1,-2.9361454E1,-2.6755068E1,-2.4657393E1,-2.2604414E1,-2.04156E1,-1.8196455E1,-1.6022987E1,-1.3697628E1,-1.1644065E1,-1.1593132E2,-8.549427E1,-5.260963E1,-1.8127935E1,1.3915276E1,4.206124E1,7.5954895E1,1.1232209E2,1.1466703E1,1.4774811E1,1.8123156E1,2.134266E1,2.444351E1,2.8192478E1,3.2014664E1,4.3542557E1,4.9938026E1,-9.697364E0,-8.465806E0,-7.3182464E0,-6.156707E0,-4.760388E0,-3.36378E0,-2.239193E0,-7.945821E-1,6.3269424E-1,1.7692759E0,2.9064772E0,4.111488E0,5.333789E0,6.810863E0,8.046367E0,9.621189E0],"categories":[],"categories_nodes":[],"categories_segments":[],"categories_sizes":[],"default_left":[0,0,0,0,0,0,0,0,0,0,0,0,0,0,0,0,0,0,0,0,0,0,0,0,0,0,0,0,0,0,0,0,0,0,0,0,0,0,0,0,0,0,0,0,0,0,0,0,0,0,0,0,0,0,0,0,0,0,0,0,0,0,0,0,0,0,0,0,0,0,0,0,0],"id":15,"left_children":[1,3,5,7,9,11,13,15,17,19,21,23,25,27,29,31,33,35,37,39,41,43,45,47,49,51,53,-1,55,-1,-1,-1,-1,-1,-1,-1,-1,-1,-1,-1,57,59,61,63,65,67,69,71,-1,-1,-1,-1,-1,-1,-1,-1,-1,-1,-1,-1,-1,-1,-1,-1,-1,-1,-1,-1,-1,-1,-1,-1,-1],"loss_changes":[4.5843437E8,5.886355E7,6.833082E7,6.260512E6,8.190499E6,9.901104E6,1.0874848E7,7.06592E5,1.026192E6,1.057533E6,9.025764E5,1.156956E6,1.154784E6,1.640032E6,1.086304E6,2.036E3,6.2192E4,9.6304E4,8.8004E4,1.1255E5,1.5299175E5,1.1585744E5,1.21648E5,7.883E4,1.42316E5,5.5618E4,5.0508E4,0E0,1.00376E5,0E0,0E0,0E0,0E0,0E0,0E0,0E0,0E0,0E0,0E0,0E0,3.843E3,8.53775E3,1.7890375E4,2.0655781E4,9.676723E3,9.576875E3,1.3243125E4,6.371E3,0E0,0E0,0E0,0E0,0E0,0E0,0E0,0E0,0E0,0E0,0E0,0E0,0E0,0E0,0E0,0E0,0E0,0E0,0E0,0E0,0E0,0E0,0E0,0E0,0E0],"parents":[2147483647,0,0,1,1,2,2,3,3,4,4,5,5,6,6,7,7,8,8,9,9,10,10,11,11,12,12,13,13,14,14,15,15,16,16,17,17,18,18,19,19,20,20,21,21,22,22,23,23,24,24,25,25,26,26,28,28,40,40,41,41,42,42,43,43,44,44,45,45,46,46,47,47],"right_children":[2,4,6,8,10,12,14,16,18,20,22,24,26,28,30,32,34,36,38,40,42,44,46,48,50,52,54,-1,56,-1,-1,-1,-1,-1,-1,-1,-1,-1,-1,-1,58,60,62,64,66,68,70,72,-1,-1,-1,-1,-1,-1,-1,-1,-1,-1,-1,-1,-1,-1,-1,-1,-1,-1,-1,-1,-1,-1,-1,-1,-1],"split_conditions":[3.1660718E-1,-5.3753996E-1,1.4148294E0,-9.136007E-1,-1.21831514E-1,8.2560784E-1,2.1680787E0,-1.0996935E0,-7.282598E-1,-3.3742154E-1,8.872663E-2,5.50551E-1,1.0969824E0,1.7032949E0,2.718173E0,-1.1686939E0,-9.9992347E-1,-8.103508E-1,-6.24017E-1,-4.4560695E-1,-2.3700565E-1,-4.0835952E-3,1.9153315E-1,4.2685547E-1,6.8806976E-1,9.6106374E-1,1.2807038E0,3.6792946E1,1.9871045E0,5.7524998E1,7.140156E1,-2.9361454E1,-2.6755068E1,-2.4657393E1,-2.2604414E1,-2.04156E1,-1.8196455E1,-1.6022987E1,-1.3697628E1,-1.1644065E1,-3.7808144E-1,-2.8594598E-1,-1.6783176E-1,-6.886182E-2,5.214429E-2,1.5017919E-1,2.5338092E-1,3.6643434E-1,1.1466703E1,1.4774811E1,1.8123156E1,2.134266E1,2.444351E1,2.8192478E1,3.2014664E1,4.3542557E1,4.9938026E1,-9.697364E0,-8.465806E0,-7.3182464E0,-6.156707E0,-4.760388E0,-3.36378E0,-2.239193E0,-7.945821E-1,6.3269424E-1,1.7692759E0,2.9064772E0,4.111488E0,5.333789E0,6.810863E0,8.046367E0,9.621189E0],"split_indices":[2,2,2,2,2,2,2,2,2,2,2,2,2,2,2,2,2,2,2,2,2,2,2,2,2,2,2,0,2,0,0,0,0,0,0,0,0,0,0,0,2,2,2,2,2,2,2,2,0,0,0,0,0,0,0,0,0,0,0,0,0,0,0,0,0,0,0,0,0,0,0,0,0],"split_type":[0,0,0,0,0,0,0,0,0,0,0,0,0,0,0,0,0,0,0,0,0,0,0,0,0,0,0,0,0,0,0,0,0,0,0,0,0,0,0,0,0,0,0,0,0,0,0,0,0,0,0,0,0,0,0,0,0,0,0,0,0,0,0,0,0,0,0,0,0,0,0,0,0],"sum_hessian":[7.192E3,4.881E3,2.311E3,2.817E3,2.064E3,1.527E3,7.84E2,1.422E3,1.395E3,1.173E3,8.91E2,8.15E2,7.12E2,5.32E2,2.52E2,5.08E2,9.14E2,8.14E2,5.81E2,5.9E2,5.83E2,4.57E2,4.34E2,3.94E2,4.21E2,3.7E2,3.42E2,2.54E2,2.78E2,1.69E2,8.3E1,1.73E2,3.35E2,4.89E2,4.25E2,4.49E2,3.65E2,3.05E2,2.76E2,2.79E2,3.11E2,3.04E2,2.79E2,2.58E2,1.99E2,2.13E2,2.21E2,1.97E2,1.97E2,2.28E2,1.93E2,1.69E2,2.01E2,2.04E2,1.38E2,1.62E2,1.16E2,1.97E2,1.14E2,1.73E2,1.31E2,1.66E2,1.13E2,1.16E2,1.42E2,1.16E2,8.3E1,1.35E2,7.8E1,1.14E2,1.07E2,8.5E1,1.12E2],"tree_param":{"num_deleted":"0","num_feature":"6","num_nodes":"73","size_leaf_vector":"1"}},{"base_weights":[2.7081978E-1,-1.5847037E2,3.4147702E2,-2.4225739E2,-3.3519714E1,2.3274208E2,5.70364E2,-2.8257413E2,-1.8891644E2,-8.438775E1,3.1340506E1,1.5947926E2,3.1233218E2,5.0465363E2,7.4625446E2,-3.088968E2,-2.596377E2,-2.1037065E2,-1.5894498E2,-1.0991299E2,-5.5342007E1,3.995098E0,6.0643627E1,1.2193292E2,1.9456044E2,2.7364246E2,3.5742374E2,4.491934E2,4.522991E1,5.579642E1,6.78859E1,-2.6879839E1,-2.3882816E1,-2.1709963E1,-1.9615286E1,-1.7808132E1,-1.5816171E1,-1.3614711E1,-1.1673828E1,-1.22631714E2,-9.451615E1,-6.885331E1,-4.006066E1,-1.0704622E1,1.8099655E1,4.6654568E1,7.695186E1,1.08675735E2,1.1146175E1,1.3984074E1,1.7194233E1,2.0226759E1,2.3407923E1,2.6973812E1,3.0640116E1,3.2973797E1,3.7689514E1,-1.05892315E1,-9.314798E0,-8.111362E0,-7.012205E0,-6.071915E0,-4.961162E0,-3.8075347E0,-2.6938243E0,-1.4324213E0,-2.6729617E-1,8.756586E-1,2.0380173E0,3.0993576E0,4.2908273E0,5.4054203E0,6.671326E0,7.720447E0,9.222485E0],"categories":[],"categories_nodes":[],"categories_segments":[],"categories_sizes":[],"default_left":[0,0,0,0,0,0,0,0,0,0,0,0,0,0,0,0,0,0,0,0,0,0,0,0,0,0,0,0,0,0,0,0,0,0,0,0,0,0,0,0,0,0,0,0,0,0,0,0,0,0,0,0,0,0,0,0,0,0,0,0,0,0,0,0,0,0,0,0,0,0,0,0,0,0,0],"id":16,"left_children":[1,3,5,7,9,11,13,15,17,19,21,23,25,27,29,31,33,35,37,39,41,43,45,47,49,51,53,55,-1,-1,-1,-1,-1,-1,-1,-1,-1,-1,-1,57,59,61,63,65,67,69,71,73,-1,-1,-1,-1,-1,-1,-1,-1,-1,-1,-1,-1,-1,-1,-1,-1,-1,-1,-1,-1,-1,-1,-1,-1,-1,-1,-1],"loss_changes":[3.880813E8,5.1186456E7,5.648749E7,6.241232E6,6.482493E6,8.953248E6,8.083728E6,9.2504E5,7.78688E5,8.10198E5,6.92086E5,1.037916E6,1.19144E6,1.551056E6,3.91816E5,1.1592E5,8.538E4,6.9566E4,5.2881E4,1.02969E5,1.0398725E5,9.307895E4,9.1542875E4,7.5253E4,1.29448E5,8.4588E4,4.5936E4,3.7156E4,0E0,0E0,0E0,0E0,0E0,0E0,0E0,0E0,0E0,0E0,0E0,3.7085E3,3.8075E3,8.44725E3,1.01875E4,1.1604877E4,1.1804156E4,1.0460625E4,5.90775E3,7.12275E3,0E0,0E0,0E0,0E0,0E0,0E0,0E0,0E0,0E0,0E0,0E0,0E0,0E0,0E0,0E0,0E0,0E0,0E0,0E0,0E0,0E0,0E0,0E0,0E0,0E0,0E0,0E0],"parents":[2147483647,0,0,1,1,2,2,3,3,4,4,5,5,6,6,7,7,8,8,9,9,10,10,11,11,12,12,13,13,14,14,15,15,16,16,17,17,18,18,19,19,20,20,21,21,22,22,23,23,24,24,25,25,26,26,27,27,39,39,40,40,41,41,42,42,43,43,44,44,45,45,46,46,47,47],"right_children":[2,4,6,8,10,12,14,16,18,20,22,24,26,28,30,32,34,36,38,40,42,44,46,48,50,52,54,56,-1,-1,-1,-1,-1,-1,-1,-1,-1,-1,-1,58,60,62,64,66,68,70,72,74,-1,-1,-1,-1,-1,-1,-1,-1,-1,-1,-1,-1,-1,-1,-1,-1,-1,-1,-1,-1,-1,-1,-1,-1,-1,-1,-1],"split_conditions":[3.3215585E-1,-5.050834E-1,1.4805042E0,-8.5707396E-1,-9.7771026E-2,8.5073835E-1,2.3217728E0,-1.0488445E0,-6.727549E-1,-3.0399135E-1,1.1489819E-1,5.6871206E-1,1.1426741E0,1.8287642E0,2.881015E0,-1.1632668E0,-9.4251955E-1,-7.774604E-1,-5.849958E-1,-3.9972237E-1,-2.0291996E-1,8.4189875E-3,2.2088577E-1,4.5683467E-1,7.0229787E-1,9.97328E-1,1.3336735E0,1.614196E0,4.522991E1,5.579642E1,6.78859E1,-2.6879839E1,-2.3882816E1,-2.1709963E1,-1.9615286E1,-1.7808132E1,-1.5816171E1,-1.3614711E1,-1.1673828E1,-4.679323E-1,-3.4762987E-1,-2.5516668E-1,-1.5630278E-1,-4.317224E-2,6.353831E-2,1.6126475E-1,2.6284704E-1,3.8485566E-1,1.1146175E1,1.3984074E1,1.7194233E1,2.0226759E1,2.3407923E1,2.6973812E1,3.0640116E1,3.2973797E1,3.7689514E1,-1.05892315E1,-9.314798E0,-8.111362E0,-7.012205E0,-6.071915E0,-4.961162E0,-3.8075347E0,-2.6938243E0,-1.4324213E0,-2.6729617E-1,8.756586E-1,2.0380173E0,3.0993576E0,4.2908273E0,5.4054203E0,6.671326E0,7.720447E0,9.222485E0],"split_indices":[2,2,2,2,2,2,2,2,2,2,2,2,2,2,2,2,2,2,2,2,2,2,2,2,2,2,2,2,0,0,0,0,0,0,0,0,0,0,0,2,2,2,2,2,2,2,2,2,0,0,0,0,0,0,0,0,0,0,0,0,0,0,0,0,0,0,0,0,0,0,0,0,0,0,0],"split_type":[0,0,0,0,0,0,0,0,0,0,0,0,0,0,0,0,0,0,0,0,0,0,0,0,0,0,0,0,0,0,0,0,0,0,0,0,0,0,0,0,0,0,0,0,0,0,0,0,0,0,0,0,0,0,0,0,0,0,0,0,0,0,0,0,0,0,0,0,0,0,0,0,0,0,0],"sum_hessian":[7.163E3,4.889E3,2.274E3,2.926E3,1.963E3,1.543E3,7.31E2,1.664E3,1.262E3,1.1E3,8.63E2,8.05E2,7.38E2,5.35E2,1.96E2,7.69E2,8.95E2,7.32E2,5.3E2,5.84E2,5.16E2,4.47E2,4.16E2,3.91E2,4.14E2,4.01E2,3.37E2,2.84E2,2.51E2,1.38E2,5.8E1,2.04E2,5.65E2,4.84E2,4.11E2,3.64E2,3.68E2,2.78E2,2.52E2,3.16E2,2.68E2,2.72E2,2.44E2,2.19E2,2.28E2,2.26E2,1.9E2,2.26E2,1.65E2,2.15E2,1.99E2,1.98E2,2.03E2,1.96E2,1.41E2,1.13E2,1.71E2,1.15E2,2.01E2,1.27E2,1.41E2,1.29E2,1.43E2,1.09E2,1.35E2,1.1E2,1.09E2,1.17E2,1.11E2,1.09E2,1.17E2,8.2E1,1.08E2,8.5E1,1.41E2],"tree_param":{"num_deleted":"0","num_feature":"6","num_nodes":"75","size_leaf_vector":"1"}},{"base_weights":[7.7527516E-2,-1.4444016E2,3.1975244E2,-2.228004E2,-3.02018E1,2.250457E2,5.467922E2,-2.635557E2,-1.785242E2,-7.7352776E1,3.111824E1,1.560102E2,3.0565753E2,4.8721942E2,7.0525604E2,-2.9352838E2,-2.4811594E2,-1.993641E2,-1.4893631E2,-1.02026505E2,-5.2673203E1,3.4986258E0,5.810506E1,1.23495804E2,1.956064E2,2.7060223E2,2.8104471E1,3.537995E1,4.3753563E1,5.2547646E1,6.2923786E1,-2.5141682E1,-2.2777466E1,-2.0729374E1,-1.8683283E1,-1.689815E1,-1.4900672E1,-1.28269E1,-1.0847392E1,-9.129564E0,-8.940013E1,-6.629156E1,-3.8725525E1,-1.0077584E1,1.7058712E1,4.2917732E1,7.269399E1,1.0726503E2,1.162007E1,1.42886E1,1.7369074E1,1.9852522E1,2.3179789E1,-7.535297E0,-6.5298867E0,-5.7613254E0,-4.7950745E0,-3.658249E0,-2.487335E0,-1.3313012E0,-2.8333017E-1,6.708869E-1,1.7729892E0,2.8857057E0,3.949918E0,5.149544E0,6.4831443E0,7.5722895E0,8.982084E0],"categories":[],"categories_nodes":[],"categories_segments":[],"categories_sizes":[],"default_left":[0,0,0,0,0,0,0,0,0,0,0,0,0,0,0,0,0,0,0,0,0,0,0,0,0,0,0,0,0,0,0,0,0,0,0,0,0,0,0,0,0,0,0,0,0,0,0,0,0,0,0,0,0,0,0,0,0,0,0,0,0,0,0,0,0,0,0,0,0],"id":17,"left_children":[1,3,5,7,9,11,13,15,17,19,21,23,25,27,29,31,33,35,37,39,41,43,45,47,49,51,-1,-1,-1,-1,-1,-1,-1,-1,-1,-1,-1,-1,-1,-1,53,55,57,59,61,63,65,67,-1,-1,-1,-1,-1,-1,-1,-1,-1,-1,-1,-1,-1,-1,-1,-1,-1,-1,-1,-1,-1],"loss_changes":[3.3105974E8,4.4170136E7,4.784832E7,5.234688E6,5.8110285E6,8.72288E6,5.849104E6,6.31512E5,8.3726E5,6.863785E5,6.512464E5,1.071462E6,1.066688E6,1.0468E6,1.7992E5,4.088E3,1.01592E5,8.8454E4,6.725E4,7.6374E4,1.05701125E5,7.988486E4,9.4812625E4,1.503775E5,1.00879E5,1.06432E5,0E0,0E0,0E0,0E0,0E0,0E0,0E0,0E0,0E0,0E0,0E0,0E0,0E0,0E0,2.8185E3,6.12225E3,1.3759906E4,9.25035E3,9.41902E3,7.8993125E3,1.034525E4,6.625E3,0E0,0E0,0E0,0E0,0E0,0E0,0E0,0E0,0E0,0E0,0E0,0E0,0E0,0E0,0E0,0E0,0E0,0E0,0E0,0E0,0E0],"parents":[2147483647,0,0,1,1,2,2,3,3,4,4,5,5,6,6,7,7,8,8,9,9,10,10,11,11,12,12,13,13,14,14,15,15,16,16,17,17,18,18,19,19,20,20,21,21,22,22,23,23,24,24,25,25,40,40,41,41,42,42,43,43,44,44,45,45,46,46,47,47],"right_children":[2,4,6,8,10,12,14,16,18,20,22,24,26,28,30,32,34,36,38,40,42,44,46,48,50,52,-1,-1,-1,-1,-1,-1,-1,-1,-1,-1,-1,-1,-1,-1,54,56,58,60,62,64,66,68,-1,-1,-1,-1,-1,-1,-1,-1,-1,-1,-1,-1,-1,-1,-1,-1,-1,-1,-1,-1,-1],"split_conditions":[3.5091457E-1,-5.050834E-1,1.5911187E0,-8.8841236E-1,-9.7771026E-2,9.1400313E-1,2.392489E0,-1.0996935E0,-6.912244E-1,-3.111343E-1,1.1489819E-1,6.379245E-1,1.2466856E0,1.9871045E0,2.881015E0,-1.1733209E0,-9.8218656E-1,-7.941755E-1,-5.940956E-1,-4.098247E-1,-2.1617444E-1,8.4189875E-3,2.2088577E-1,5.072884E-1,7.853721E-1,1.0525436E0,2.8104471E1,3.537995E1,4.3753563E1,5.2547646E1,6.2923786E1,-2.5141682E1,-2.2777466E1,-2.0729374E1,-1.8683283E1,-1.689815E1,-1.4900672E1,-1.28269E1,-1.0847392E1,-9.129564E0,-3.4762987E-1,-2.6625225E-1,-1.5630278E-1,-4.317224E-2,5.214429E-2,1.6126475E-1,2.8672436E-1,3.9863065E-1,1.162007E1,1.42886E1,1.7369074E1,1.9852522E1,2.3179789E1,-7.535297E0,-6.5298867E0,-5.7613254E0,-4.7950745E0,-3.658249E0,-2.487335E0,-1.3313012E0,-2.8333017E-1,6.708869E-1,1.7729892E0,2.8857057E0,3.949918E0,5.149544E0,6.4831443E0,7.5722895E0,8.982084E0],"split_indices":[2,2,2,2,2,2,2,2,2,2,2,2,2,2,2,2,2,2,2,2,2,2,2,2,2,2,0,0,0,0,0,0,0,0,0,0,0,0,0,0,2,2,2,2,2,2,2,2,0,0,0,0,0,0,0,0,0,0,0,0,0,0,0,0,0,0,0,0,0],"split_type":[0,0,0,0,0,0,0,0,0,0,0,0,0,0,0,0,0,0,0,0,0,0,0,0,0,0,0,0,0,0,0,0,0,0,0,0,0,0,0,0,0,0,0,0,0,0,0,0,0,0,0,0,0,0,0,0,0,0,0,0,0,0,0,0,0,0,0,0,0],"sum_hessian":[7.164E3,4.934E3,2.23E3,2.926E3,2.008E3,1.575E3,6.55E2,1.521E3,1.405E3,1.135E3,8.73E2,8.5E2,7.25E2,4.79E2,1.76E2,5.11E2,1.01E3,8.21E2,5.84E2,5.66E2,5.69E2,4.32E2,4.41E2,4.69E2,3.81E2,4.14E2,3.11E2,2.78E2,2.01E2,1.16E2,6E1,1.42E2,3.69E2,5.66E2,4.44E2,4.23E2,3.98E2,3.09E2,2.75E2,2.85E2,2.81E2,2.86E2,2.83E2,2.16E2,2.16E2,2.18E2,2.23E2,2.72E2,1.97E2,2.18E2,1.63E2,1.97E2,2.17E2,1.67E2,1.14E2,1.45E2,1.41E2,1.45E2,1.38E2,1.07E2,1.09E2,8.1E1,1.35E2,1.09E2,1.09E2,1.16E2,1.07E2,8.3E1,1.89E2],"tree_param":{"num_deleted":"0","num_feature":"6","num_nodes":"69","size_leaf_vector":"1"}},{"base_weights":[-7.0625216E-2,-1.3636507E2,2.840844E2,-2.1073883E2,-3.9123688E1,1.8912747E2,4.8071976E2,-2.4553926E2,-1.731477E2,-8.226723E1,1.7024063E1,1.282106E2,2.6031375E2,4.1323108E2,6.11218E2,-2.7046487E2,-2.3109409E2,-1.900634E2,-1.4843175E2,-1.05421524E2,-5.874242E1,-8.919827E0,4.145741E1,9.590912E1,1.5693318E2,2.2787886E2,2.971604E2,3.716529E2,3.6889603E1,4.486909E1,5.579705E1,-2.341659E1,-2.1046307E1,-1.9274746E1,-1.7658222E1,-1.6027515E1,-1.4352615E1,-1.2634946E1,-1.0920637E1,-9.35428E0,-9.445832E1,-6.938653E1,-4.4773804E1,-2.1314322E1,3.569821E0,3.0104063E1,5.732607E1,6.375031E0,1.0417812E2,1.1161769E1,1.3953758E1,1.6766016E1,1.9457981E1,2.2401466E1,2.5443674E1,2.7772219E1,3.1411875E1,-8.019764E0,-7.1172185E0,-5.933153E0,-4.9706893E0,-3.9977725E0,-3.0276058E0,-2.1756058E0,-1.2110602E0,-1.934138E-1,7.4127567E-1,1.859251E0,2.9719894E0,4.1654677E0,5.0913053E0,7.807557E0,8.914834E0],"categories":[],"categories_nodes":[],"categories_segments":[],"categories_sizes":[],"default_left":[0,0,0,0,0,0,0,0,0,0,0,0,0,0,0,0,0,0,0,0,0,0,0,0,0,0,0,0,0,0,0,0,0,0,0,0,0,0,0,0,0,0,0,0,0,0,0,0,0,0,0,0,0,0,0,0,0,0,0,0,0,0,0,0,0,0,0,0,0,0,0,0,0],"id":18,"left_children":[1,3,5,7,9,11,13,15,17,19,21,23,25,27,29,31,33,35,37,39,41,43,45,47,49,51,53,55,-1,-1,-1,-1,-1,-1,-1,-1,-1,-1,-1,-1,57,59,61,63,65,67,69,-1,71,-1,-1,-1,-1,-1,-1,-1,-1,-1,-1,-1,-1,-1,-1,-1,-1,-1,-1,-1,-1,-1,-1,-1,-1],"loss_changes":[2.801638E8,3.5350024E7,4.3694656E7,3.581168E6,5.136916E6,6.83122E6,6.46728E6,4.54536E5,5.29936E5,6.46903E5,5.8482194E5,7.78201E5,8.03524E5,8.36136E5,7.29272E5,8.592E3,4.026E4,5.0488E4,4.0436E4,6.50255E4,8.5657375E4,6.942777E4,8.3851375E4,4.60225E4,1.12994E5,5.9132E4,3.1952E4,5.664E3,0E0,0E0,0E0,0E0,0E0,0E0,0E0,0E0,0E0,0E0,0E0,0E0,1.066E3,7.070125E3,7.5095E3,7.7603047E3,7.662038E3,1.2628609E4,3.2275E3,0E0,1.786E3,0E0,0E0,0E0,0E0,0E0,0E0,0E0,0E0,0E0,0E0,0E0,0E0,0E0,0E0,0E0,0E0,0E0,0E0,0E0,0E0,0E0,0E0,0E0,0E0],"parents":[2147483647,0,0,1,1,2,2,3,3,4,4,5,5,6,6,7,7,8,8,9,9,10,10,11,11,12,12,13,13,14,14,15,15,16,16,17,17,18,18,19,19,20,20,21,21,22,22,23,23,24,24,25,25,26,26,27,27,40,40,41,41,42,42,43,43,44,44,45,45,46,46,48,48],"right_children":[2,4,6,8,10,12,14,16,18,20,22,24,26,28,30,32,34,36,38,40,42,44,46,48,50,52,54,56,-1,-1,-1,-1,-1,-1,-1,-1,-1,-1,-1,-1,58,60,62,64,66,68,70,-1,72,-1,-1,-1,-1,-1,-1,-1,-1,-1,-1,-1,-1,-1,-1,-1,-1,-1,-1,-1,-1,-1,-1,-1,-1],"split_conditions":[2.9949686E-1,-5.544286E-1,1.4528962E0,-9.136007E-1,-1.4512083E-1,8.2560784E-1,2.1680787E0,-1.0996935E0,-7.398177E-1,-3.560549E-1,6.353831E-2,5.2641344E-1,1.1194812E0,1.7793322E0,2.718173E0,-1.180618E0,-1.0053988E0,-8.223328E-1,-6.306298E-1,-4.679323E-1,-2.4606688E-1,-4.317224E-2,1.9153315E-1,3.8485566E-1,6.7616487E-1,9.7878134E-1,1.310442E0,1.614196E0,3.6889603E1,4.486909E1,5.579705E1,-2.341659E1,-2.1046307E1,-1.9274746E1,-1.7658222E1,-1.6027515E1,-1.4352615E1,-1.2634946E1,-1.0920637E1,-9.35428E0,-4.2224053E-1,-2.958073E-1,-1.9129458E-1,-9.7771026E-2,8.4189875E-3,1.24933034E-1,2.5338092E-1,6.375031E0,4.5683467E-1,1.1161769E1,1.3953758E1,1.6766016E1,1.9457981E1,2.2401466E1,2.5443674E1,2.7772219E1,3.1411875E1,-8.019764E0,-7.1172185E0,-5.933153E0,-4.9706893E0,-3.9977725E0,-3.0276058E0,-2.1756058E0,-1.2110602E0,-1.934138E-1,7.4127567E-1,1.859251E0,2.9719894E0,4.1654677E0,5.0913053E0,7.807557E0,8.914834E0],"split_indices":[2,2,2,2,2,2,2,2,2,2,2,2,2,2,2,2,2,2,2,2,2,2,2,2,2,2,2,2,0,0,0,0,0,0,0,0,0,0,0,0,2,2,2,2,2,2,2,0,2,0,0,0,0,0,0,0,0,0,0,0,0,0,0,0,0,0,0,0,0,0,0,0,0],"split_type":[0,0,0,0,0,0,0,0,0,0,0,0,0,0,0,0,0,0,0,0,0,0,0,0,0,0,0,0,0,0,0,0,0,0,0,0,0,0,0,0,0,0,0,0,0,0,0,0,0,0,0,0,0,0,0,0,0,0,0,0,0,0,0,0,0,0,0,0,0,0,0,0,0],"sum_hessian":[7.232E3,4.888E3,2.344E3,2.769E3,2.119E3,1.582E3,7.62E2,1.435E3,1.334E3,1.198E3,9.21E2,8.54E2,7.28E2,5.05E2,2.57E2,5.2E2,9.15E2,7.88E2,5.46E2,6.02E2,5.96E2,4.47E2,4.74E2,4.04E2,4.5E2,3.91E2,3.37E2,2.75E2,2.3E2,1.67E2,9E1,1.2E2,4E2,4.58E2,4.57E2,3.92E2,3.96E2,2.97E2,2.49E2,2.89E2,3.13E2,3.36E2,2.6E2,2.24E2,2.23E2,2.78E2,1.96E2,1.4E2,2.64E2,2.3E2,2.2E2,1.85E2,2.06E2,1.93E2,1.44E2,1.35E2,1.4E2,1.44E2,1.69E2,1.97E2,1.39E2,1.45E2,1.15E2,1.13E2,1.11E2,1.09E2,1.14E2,1.43E2,1.35E2,1.12E2,8.4E1,1.46E2,1.18E2],"tree_param":{"num_deleted":"0","num_feature":"6","num_nodes":"73","size_leaf_vector":"1"}},{"base_weights":[8.925627E-1,-1.2068288E2,2.7260693E2,-1.8641331E2,-2.0497322E1,1.9073784E2,4.560214E2,-2.1824408E2,-1.4222032E2,-6.0239666E1,3.0057325E1,1.3704977E2,2.5882095E2,4.0742993E2,5.9744946E2,-2.367951E2,-1.9651039E2,-1.600904E2,-1.1937511E2,-7.789989E1,-3.6286385E1,9.688746E0,5.5149952E1,1.100589E2,1.7177771E2,2.3190154E2,2.3607912E1,3.6889993E2,3.707333E1,4.5327065E1,5.718089E1,-2.063809E1,-1.8206974E1,-1.6371136E1,-1.4891559E1,-1.3381985E1,-1.1877874E1,-1.0216431E1,-8.689221E0,-7.112284E0,-6.6754616E1,-4.747487E1,-2.679841E1,-1.5762193E0,2.2526762E1,4.512552E1,5.4420447E0,9.446711E1,1.0260554E1,1.2427574E1,1.4841384E1,1.7340088E1,2.0025766E1,2.7494476E1,3.1148075E1,-5.7777104E0,-4.952482E0,-4.0666704E0,-3.300474E0,-2.5394502E0,-1.5729858E0,-5.34048E-1,4.431615E-1,1.3484862E0,2.2089734E0,3.0857832E0,4.0970535E0,6.997785E0,8.068178E0],"categories":[],"categories_nodes":[],"categories_segments":[],"categories_sizes":[],"default_left":[0,0,0,0,0,0,0,0,0,0,0,0,0,0,0,0,0,0,0,0,0,0,0,0,0,0,0,0,0,0,0,0,0,0,0,0,0,0,0,0,0,0,0,0,0,0,0,0,0,0,0,0,0,0,0,0,0,0,0,0,0,0,0,0,0,0,0,0,0],"id":19,"left_children":[1,3,5,7,9,11,13,15,17,19,21,23,25,27,29,31,33,35,37,39,41,43,45,47,49,51,-1,53,-1,-1,-1,-1,-1,-1,-1,-1,-1,-1,-1,-1,55,57,59,61,63,65,-1,67,-1,-1,-1,-1,-1,-1,-1,-1,-1,-1,-1,-1,-1,-1,-1,-1,-1,-1,-1,-1,-1],"loss_changes":[2.3605936E8,3.2507512E7,3.3083312E7,4.162328E6,3.933737E6,5.553408E6,4.436544E6,6.51376E5,4.91604E5,4.6080325E5,4.4003494E5,7.84393E5,5.88808E5,9.292E5,2.17732E5,1.22476E5,2.9568E4,3.3502E4,3.5696E4,7.132825E4,4.8302625E4,6.901916E4,4.67515E4,1.25498E5,5.5397E4,5.4862E4,0E0,2.4524E4,0E0,0E0,0E0,0E0,0E0,0E0,0E0,0E0,0E0,0E0,0E0,0E0,3.931375E3,2.351625E3,8.373781E3,9.289873E3,5.965383E3,6.8012188E3,0E0,3.01375E3,0E0,0E0,0E0,0E0,0E0,0E0,0E0,0E0,0E0,0E0,0E0,0E0,0E0,0E0,0E0,0E0,0E0,0E0,0E0,0E0,0E0],"parents":[2147483647,0,0,1,1,2,2,3,3,4,4,5,5,6,6,7,7,8,8,9,9,10,10,11,11,12,12,13,13,14,14,15,15,16,16,17,17,18,18,19,19,20,20,21,21,22,22,23,23,24,24,25,25,27,27,40,40,41,41,42,42,43,43,44,44,45,45,47,47],"right_children":[2,4,6,8,10,12,14,16,18,20,22,24,26,28,30,32,34,36,38,40,42,44,46,48,50,52,-1,54,-1,-1,-1,-1,-1,-1,-1,-1,-1,-1,-1,-1,56,58,60,62,64,66,-1,68,-1,-1,-1,-1,-1,-1,-1,-1,-1,-1,-1,-1,-1,-1,-1,-1,-1,-1,-1,-1,-1],"split_conditions":[3.6643434E-1,-4.780828E-1,1.5546424E0,-8.367826E-1,-6.886182E-2,9.3688756E-1,2.392489E0,-1.0106235E0,-6.5321535E-1,-2.6625225E-1,1.5017919E-1,6.7616487E-1,1.2466856E0,1.9871045E0,2.974365E0,-1.1428982E0,-9.171866E-1,-7.4529296E-1,-5.544286E-1,-3.652993E-1,-1.818092E-1,5.214429E-2,2.6284704E-1,5.2641344E-1,7.853721E-1,1.0969824E0,2.3607912E1,1.7032949E0,3.707333E1,4.5327065E1,5.718089E1,-2.063809E1,-1.8206974E1,-1.6371136E1,-1.4891559E1,-1.3381985E1,-1.1877874E1,-1.0216431E1,-8.689221E0,-7.112284E0,-3.1906772E-1,-2.1617444E-1,-1.21831514E-1,-4.0835952E-3,1.0226066E-1,2.0284042E-1,5.4420447E0,4.4493937E-1,1.0260554E1,1.2427574E1,1.4841384E1,1.7340088E1,2.0025766E1,2.7494476E1,3.1148075E1,-5.7777104E0,-4.952482E0,-4.0666704E0,-3.300474E0,-2.5394502E0,-1.5729858E0,-5.34048E-1,4.431615E-1,1.3484862E0,2.2089734E0,3.0857832E0,4.0970535E0,6.997785E0,8.068178E0],"split_indices":[3,3,3,3,3,3,3,3,3,3,3,3,3,3,3,3,3,3,3,3,3,3,3,3,3,3,0,3,0,0,0,0,0,0,0,0,0,0,0,0,3,3,3,3,3,3,0,3,0,0,0,0,0,0,0,0,0,0,0,0,0,0,0,0,0,0,0,0,0],"split_type":[0,0,0,0,0,0,0,0,0,0,0,0,0,0,0,0,0,0,0,0,0,0,0,0,0,0,0,0,0,0,0,0,0,0,0,0,0,0,0,0,0,0,0,0,0,0,0,0,0,0,0,0,0,0,0,0,0,0,0,0,0,0,0,0,0,0,0,0,0],"sum_hessian":[7.144E3,4.936E3,2.208E3,2.98E3,1.956E3,1.528E3,6.8E2,1.73E3,1.25E3,1.095E3,8.61E2,8.56E2,6.72E2,5.09E2,1.71E2,9.28E2,8.02E2,6.98E2,5.52E2,6.29E2,4.66E2,4.76E2,3.85E2,4.84E2,3.72E2,3.9E2,2.82E2,3.06E2,2.03E2,1.4E2,3.1E1,2.73E2,6.55E2,4.39E2,3.63E2,4.23E2,2.75E2,3.05E2,2.47E2,3.13E2,3.16E2,2.12E2,2.54E2,2.54E2,2.22E2,2.19E2,1.66E2,2.64E2,2.2E2,1.75E2,1.97E2,2.21E2,1.69E2,1.45E2,1.61E2,1.42E2,1.74E2,1.33E2,7.9E1,1.48E2,1.06E2,1.48E2,1.06E2,1.07E2,1.15E2,1.09E2,1.1E2,1.33E2,1.31E2],"tree_param":{"num_deleted":"0","num_feature":"6","num_nodes":"69","size_leaf_vector":"1"}},{"base_weights":[-7.141917E-2,-1.1371615E2,2.428349E2,-1.7663268E2,-2.9169384E1,1.5553545E2,3.928256E2,-2.0739912E2,-1.4390395E2,-6.5838974E1,1.8343576E1,1.0707718E2,2.0832692E2,3.2911423E2,5.006898E2,-2.3015666E2,-1.955768E2,-1.5842395E2,-1.21217186E2,-8.592134E1,-4.5983856E1,-1.304294E0,4.0920807E1,8.230978E1,1.2903119E2,1.8436508E2,1.9002003E1,2.3657528E1,2.9328127E1,3.6301884E1,5.784661E2,-1.990724E1,-1.7902334E1,-1.6260191E1,-1.4804454E1,-1.3293628E1,-1.1706993E1,-1.0291805E1,-8.839096E0,-7.6168838E0,-6.010949E0,-5.6413868E1,-3.4630447E1,-1.3244179E1,8.748154E0,3.0804161E1,5.204685E1,5.636712E0,7.140191E0,9.343451E0,1.1269184E1,1.3664348E1,1.5796206E1,4.3258675E1,5.318682E1,-4.7778673E0,-3.9859107E0,-3.2195385E0,-2.3268895E0,-1.3688904E0,-5.2123624E-1,3.1498614E-1,1.2477801E0,2.0488036E0,2.8543766E0,3.7752774E0,4.634798E0],"categories":[],"categories_nodes":[],"categories_segments":[],"categories_sizes":[],"default_left":[0,0,0,0,0,0,0,0,0,0,0,0,0,0,0,0,0,0,0,0,0,0,0,0,0,0,0,0,0,0,0,0,0,0,0,0,0,0,0,0,0,0,0,0,0,0,0,0,0,0,0,0,0,0,0,0,0,0,0,0,0,0,0,0,0,0,0],"id":20,"left_children":[1,3,5,7,9,11,13,15,17,19,21,23,25,27,29,31,33,35,37,39,41,43,45,47,49,51,-1,-1,-1,-1,53,-1,-1,-1,-1,-1,-1,-1,-1,-1,-1,55,57,59,61,63,65,-1,-1,-1,-1,-1,-1,-1,-1,-1,-1,-1,-1,-1,-1,-1,-1,-1,-1,-1,-1],"loss_changes":[1.9790042E8,2.5974752E7,2.9858928E7,2.789592E6,3.6338632E6,3.676824E6,5.607848E6,3.42688E5,4.28796E5,4.653635E5,4.0328084E5,4.0045E5,4.39662E5,5.56344E5,8.68688E5,2.344E3,3.9508E4,5.302E4,2.84345E4,5.1354E4,6.8385625E4,5.856807E4,4.600875E4,2.3166E4,4.1331E4,3.4425E4,0E0,0E0,0E0,0E0,8.76E3,0E0,0E0,0E0,0E0,0E0,0E0,0E0,0E0,0E0,0E0,3.741625E3,7.7622188E3,5.6908984E3,8.670291E3,4.7588594E3,2.9844375E3,0E0,0E0,0E0,0E0,0E0,0E0,0E0,0E0,0E0,0E0,0E0,0E0,0E0,0E0,0E0,0E0,0E0,0E0,0E0,0E0],"parents":[2147483647,0,0,1,1,2,2,3,3,4,4,5,5,6,6,7,7,8,8,9,9,10,10,11,11,12,12,13,13,14,14,15,15,16,16,17,17,18,18,19,19,20,20,21,21,22,22,23,23,24,24,25,25,30,30,41,41,42,42,43,43,44,44,45,45,46,46],"right_children":[2,4,6,8,10,12,14,16,18,20,22,24,26,28,30,32,34,36,38,40,42,44,46,48,50,52,-1,-1,-1,-1,54,-1,-1,-1,-1,-1,-1,-1,-1,-1,-1,56,58,60,62,64,66,-1,-1,-1,-1,-1,-1,-1,-1,-1,-1,-1,-1,-1,-1,-1,-1,-1,-1,-1,-1],"split_conditions":[3.1660718E-1,-5.3753996E-1,1.3594306E0,-9.0594685E-1,-1.21831514E-1,7.853721E-1,2.070063E0,-1.1054772E0,-7.087396E-1,-3.3742154E-1,1.0226066E-1,5.2641344E-1,1.0687768E0,1.6615939E0,2.5556684E0,-1.180618E0,-9.9379265E-1,-7.941755E-1,-6.099046E-1,-4.372012E-1,-2.3700565E-1,-1.8562298E-2,2.0284042E-1,3.9863065E-1,6.583412E-1,9.3688756E-1,1.9002003E1,2.3657528E1,2.9328127E1,3.6301884E1,2.974365E0,-1.990724E1,-1.7902334E1,-1.6260191E1,-1.4804454E1,-1.3293628E1,-1.1706993E1,-1.0291805E1,-8.839096E0,-7.6168838E0,-6.010949E0,-2.7683654E-1,-1.818092E-1,-5.4122843E-2,5.214429E-2,1.5017919E-1,2.6284704E-1,5.636712E0,7.140191E0,9.343451E0,1.1269184E1,1.3664348E1,1.5796206E1,4.3258675E1,5.318682E1,-4.7778673E0,-3.9859107E0,-3.2195385E0,-2.3268895E0,-1.3688904E0,-5.2123624E-1,3.1498614E-1,1.2477801E0,2.0488036E0,2.8543766E0,3.7752774E0,4.634798E0],"split_indices":[2,2,2,2,2,2,2,2,2,2,2,2,2,2,2,2,2,2,2,2,2,2,2,2,2,2,0,0,0,0,2,0,0,0,0,0,0,0,0,0,0,2,2,2,2,2,2,0,0,0,0,0,0,0,0,0,0,0,0,0,0,0,0,0,0,0,0],"split_type":[0,0,0,0,0,0,0,0,0,0,0,0,0,0,0,0,0,0,0,0,0,0,0,0,0,0,0,0,0,0,0,0,0,0,0,0,0,0,0,0,0,0,0,0,0,0,0,0,0,0,0,0,0,0,0,0,0,0,0,0,0,0,0,0,0,0,0],"sum_hessian":[7.167E3,4.883E3,2.284E3,2.799E3,2.084E3,1.445E3,8.39E2,1.44E3,1.359E3,1.176E3,9.08E2,7.55E2,6.9E2,5.3E2,3.09E2,4.86E2,9.54E2,8.25E2,5.34E2,5.83E2,5.93E2,4.86E2,4.22E2,3.57E2,3.98E2,3.83E2,3.07E2,2.85E2,2.45E2,1.97E2,1.12E2,1.14E2,3.72E2,5.41E2,4.13E2,4.95E2,3.3E2,3.09E2,2.25E2,3.09E2,2.74E2,3.07E2,2.86E2,2.22E2,2.64E2,2.23E2,1.99E2,1.36E2,2.21E2,2.01E2,1.97E2,1.95E2,1.88E2,8.3E1,2.9E1,1.99E2,1.08E2,1.39E2,1.47E2,1.4E2,8.2E1,1.56E2,1.08E2,1.11E2,1.12E2,1.14E2,8.5E1],"tree_param":{"num_deleted":"0","num_feature":"6","num_nodes":"67","size_leaf_vector":"1"}},{"base_weights":[-1.5791894E-1,-1.0578803E2,2.2106491E2,-1.6310901E2,-2.8886189E1,1.4572554E2,3.7126398E2,-1.9178603E2,-1.346226E2,-6.2350258E1,1.4556578E1,9.9009766E1,1.9766689E2,3.268141E2,4.9657452E2,-2.1062694E2,-1.8040407E2,-1.4867448E2,-1.14825745E2,-8.06737E1,-4.432287E1,-4.7595096E0,3.392593E1,7.4734055E1,1.2100694E2,1.7363846E2,2.2609378E2,2.9400812E2,3.0182325E1,3.7137024E1,4.59232E1,-1.8100885E1,-1.6317343E1,-1.4967774E1,-1.3761397E1,-1.2591733E1,-1.1212644E1,-9.86719E0,-8.4168005E0,-7.12211E0,-7.085751E1,-5.3371387E1,-3.39155E1,-1.4769874E1,4.9681144E0,2.3562248E1,4.3738968E1,4.9969406E0,8.1481865E1,8.731493E0,1.0714083E1,1.283323E1,1.485965E1,1.7065996E1,1.9399866E1,2.1551582E1,2.5059546E1,-6.0018134E0,-5.291258E0,-4.568389E0,-3.8615985E0,-3.1068072E0,-2.300293E0,-1.4735996E0,-6.7736435E-1,-4.4430075E-3,7.628423E-1,1.6147052E0,2.3097796E0,2.9648612E0,3.7955394E0,6.1600404E0,7.1494284E0],"categories":[],"categories_nodes":[],"categories_segments":[],"categories_sizes":[],"default_left":[0,0,0,0,0,0,0,0,0,0,0,0,0,0,0,0,0,0,0,0,0,0,0,0,0,0,0,0,0,0,0,0,0,0,0,0,0,0,0,0,0,0,0,0,0,0,0,0,0,0,0,0,0,0,0,0,0,0,0,0,0,0,0,0,0,0,0,0,0,0,0,0,0],"id":21,"left_children":[1,3,5,7,9,11,13,15,17,19,21,23,25,27,29,31,33,35,37,39,41,43,45,47,49,51,53,55,-1,-1,-1,-1,-1,-1,-1,-1,-1,-1,-1,-1,57,59,61,63,65,67,69,-1,71,-1,-1,-1,-1,-1,-1,-1,-1,-1,-1,-1,-1,-1,-1,-1,-1,-1,-1,-1,-1,-1,-1,-1,-1],"loss_changes":[1.6789762E8,2.1431816E7,2.6221416E7,2.250088E6,3.021845E6,3.73662E6,4.154488E6,2.5922E5,3.72664E5,3.84225E5,3.3875828E5,4.272325E5,4.60738E5,8.41024E5,2.37416E5,7.58E3,1.6708E4,3.8552E4,3.49995E4,4.13285E4,5.4127625E4,4.4282562E4,4.4937438E4,2.72895E4,5.0826E4,3.4402E4,1.7812E4,8.2748E4,0E0,0E0,0E0,0E0,0E0,0E0,0E0,0E0,0E0,0E0,0E0,0E0,3.8175E2,3.262125E3,5.9682812E3,4.9973945E3,5.3008486E3,3.3997969E3,3.9576562E3,0E0,1.91825E3,0E0,0E0,0E0,0E0,0E0,0E0,0E0,0E0,0E0,0E0,0E0,0E0,0E0,0E0,0E0,0E0,0E0,0E0,0E0,0E0,0E0,0E0,0E0,0E0],"parents":[2147483647,0,0,1,1,2,2,3,3,4,4,5,5,6,6,7,7,8,8,9,9,10,10,11,11,12,12,13,13,14,14,15,15,16,16,17,17,18,18,19,19,20,20,21,21,22,22,23,23,24,24,25,25,26,26,27,27,40,40,41,41,42,42,43,43,44,44,45,45,46,46,48,48],"right_children":[2,4,6,8,10,12,14,16,18,20,22,24,26,28,30,32,34,36,38,40,42,44,46,48,50,52,54,56,-1,-1,-1,-1,-1,-1,-1,-1,-1,-1,-1,-1,58,60,62,64,66,68,70,-1,72,-1,-1,-1,-1,-1,-1,-1,-1,-1,-1,-1,-1,-1,-1,-1,-1,-1,-1,-1,-1,-1,-1,-1,-1],"split_conditions":[2.9949686E-1,-5.460132E-1,1.4148294E0,-9.171866E-1,-1.3507634E-1,8.058273E-1,2.3217728E0,-1.0996935E0,-7.398177E-1,-3.4762987E-1,7.458532E-2,5.2641344E-1,1.0969824E0,1.8806252E0,2.881015E0,-1.1733209E0,-9.9992347E-1,-8.297842E-1,-6.306298E-1,-4.4560695E-1,-2.4606688E-1,-3.087209E-2,1.7572418E-1,3.8485566E-1,6.7616487E-1,9.6106374E-1,1.2807038E0,1.614196E0,3.0182325E1,3.7137024E1,4.59232E1,-1.8100885E1,-1.6317343E1,-1.4967774E1,-1.3761397E1,-1.2591733E1,-1.1212644E1,-9.86719E0,-8.4168005E0,-7.12211E0,-3.9972237E-1,-2.958073E-1,-1.9129458E-1,-6.886182E-2,1.9533465E-2,1.3514139E-1,2.2088577E-1,4.9969406E0,4.7678867E-1,8.731493E0,1.0714083E1,1.283323E1,1.485965E1,1.7065996E1,1.9399866E1,2.1551582E1,2.5059546E1,-6.0018134E0,-5.291258E0,-4.568389E0,-3.8615985E0,-3.1068072E0,-2.300293E0,-1.4735996E0,-6.7736435E-1,-4.4430075E-3,7.628423E-1,1.6147052E0,2.3097796E0,2.9648612E0,3.7955394E0,6.1600404E0,7.1494284E0],"split_indices":[3,3,3,3,3,3,3,3,3,3,3,3,3,3,3,3,3,3,3,3,3,3,3,3,3,3,3,3,0,0,0,0,0,0,0,0,0,0,0,0,3,3,3,3,3,3,3,0,3,0,0,0,0,0,0,0,0,0,0,0,0,0,0,0,0,0,0,0,0,0,0,0,0],"split_type":[0,0,0,0,0,0,0,0,0,0,0,0,0,0,0,0,0,0,0,0,0,0,0,0,0,0,0,0,0,0,0,0,0,0,0,0,0,0,0,0,0,0,0,0,0,0,0,0,0,0,0,0,0,0,0,0,0,0,0,0,0,0,0,0,0,0,0,0,0,0,0,0,0],"sum_hessian":[7.183E3,4.862E3,2.321E3,2.785E3,2.077E3,1.547E3,7.74E2,1.385E3,1.4E3,1.173E3,9.04E2,8.16E2,7.31E2,5.74E2,2E2,5.15E2,8.7E2,8.15E2,5.85E2,5.8E2,5.93E2,4.53E2,4.51E2,3.9E2,4.26E2,4E2,3.31E2,3.52E2,2.22E2,1.46E2,5.4E1,1.44E2,3.71E2,4.72E2,3.98E2,3.94E2,4.21E2,3.04E2,2.81E2,3.09E2,2.71E2,3.15E2,2.78E2,2.23E2,2.3E2,2.21E2,2.3E2,1.42E2,2.48E2,2.27E2,1.99E2,1.98E2,2.02E2,1.94E2,1.37E2,1.61E2,1.91E2,1.36E2,1.35E2,1.76E2,1.39E2,1.39E2,1.39E2,1.4E2,8.3E1,1.1E2,1.2E2,1.38E2,8.3E1,8.6E1,1.44E2,1.65E2,8.3E1],"tree_param":{"num_deleted":"0","num_feature":"6","num_nodes":"73","size_leaf_vector":"1"}},{"base_weights":[3.0619097E-1,-9.77077E1,2.0324855E2,-1.5065994E2,-2.7855959E1,1.3816473E2,3.4775934E2,-1.7655402E2,-1.2454457E2,-5.979361E1,1.0861208E1,9.223529E1,1.8799002E2,3.0955972E2,4.6988614E2,-1.9520233E2,-1.6633319E2,-1.3902594E2,-1.0932527E2,-7.622681E1,-4.3791187E1,-7.7261567E0,2.9740602E1,7.15078E1,1.163403E2,1.6454607E2,2.167855E2,2.779612E2,2.8530329E1,3.5776672E1,4.530318E1,-1.6916264E1,-1.5162875E1,-1.3674316E1,-1.2464386E1,-1.1580981E1,-1.0513752E1,-9.385615E0,-7.9590244E0,-6.727254E0,-5.478346E0,-5.1144886E1,-3.41783E1,-1.7352394E1,1.1993916E0,2.0403831E1,3.981335E1,6.150475E1,8.124227E1,8.57403E0,1.0513691E1,1.2173143E1,1.4215946E1,1.6340122E1,1.8635956E1,2.044389E1,2.3456125E1,-4.492364E0,-3.7874799E0,-3.0363607E0,-2.3468285E0,-1.7043986E0,-1.0600173E0,-3.408218E-1,4.5290354E-1,1.2421012E0,1.9683502E0,2.6899202E0,3.511074E0,4.458992E0,5.35864E0,5.881888E0,6.849918E0],"categories":[],"categories_nodes":[],"categories_segments":[],"categories_sizes":[],"default_left":[0,0,0,0,0,0,0,0,0,0,0,0,0,0,0,0,0,0,0,0,0,0,0,0,0,0,0,0,0,0,0,0,0,0,0,0,0,0,0,0,0,0,0,0,0,0,0,0,0,0,0,0,0,0,0,0,0,0,0,0,0,0,0,0,0,0,0,0,0,0,0,0,0],"id":22,"left_children":[1,3,5,7,9,11,13,15,17,19,21,23,25,27,29,31,33,35,37,39,41,43,45,47,49,51,53,55,-1,-1,-1,-1,-1,-1,-1,-1,-1,-1,-1,-1,-1,57,59,61,63,65,67,69,71,-1,-1,-1,-1,-1,-1,-1,-1,-1,-1,-1,-1,-1,-1,-1,-1,-1,-1,-1,-1,-1,-1,-1,-1],"loss_changes":[1.4371368E8,1.8016384E7,2.2082648E7,1.851856E6,2.5998465E6,3.699102E6,3.260144E6,2.3228E5,2.89608E5,2.9960475E5,3.3395294E5,4.14873E5,4.89542E5,7.3228E5,1.22776E5,4.674E3,1.7108E4,1.1728E4,4.1731E4,2.878625E4,3.96765E4,4.1262145E4,4.3577844E4,3.96005E4,3.98185E4,4.3479E4,2.2519E4,4.0868E4,0E0,0E0,0E0,0E0,0E0,0E0,0E0,0E0,0E0,0E0,0E0,0E0,0E0,3.625875E3,3.586625E3,3.4631953E3,6.114241E3,4.678625E3,4.2244688E3,3.5334375E3,1.44975E3,0E0,0E0,0E0,0E0,0E0,0E0,0E0,0E0,0E0,0E0,0E0,0E0,0E0,0E0,0E0,0E0,0E0,0E0,0E0,0E0,0E0,0E0,0E0,0E0],"parents":[2147483647,0,0,1,1,2,2,3,3,4,4,5,5,6,6,7,7,8,8,9,9,10,10,11,11,12,12,13,13,14,14,15,15,16,16,17,17,18,18,19,19,20,20,21,21,22,22,23,23,24,24,25,25,26,26,27,27,41,41,42,42,43,43,44,44,45,45,46,46,47,47,48,48],"right_children":[2,4,6,8,10,12,14,16,18,20,22,24,26,28,30,32,34,36,38,40,42,44,46,48,50,52,54,56,-1,-1,-1,-1,-1,-1,-1,-1,-1,-1,-1,-1,-1,58,60,62,64,66,68,70,72,-1,-1,-1,-1,-1,-1,-1,-1,-1,-1,-1,-1,-1,-1,-1,-1,-1,-1,-1,-1,-1,-1,-1,-1],"split_conditions":[2.9949686E-1,-5.544286E-1,1.4805042E0,-9.171866E-1,-1.5630278E-1,8.2560784E-1,2.392489E0,-1.1054772E0,-7.627311E-1,-3.652993E-1,6.353831E-2,5.6871206E-1,1.1426741E0,1.9374412E0,2.974365E0,-1.180618E0,-9.773475E-1,-8.297842E-1,-6.5321535E-1,-4.679323E-1,-2.5516668E-1,-5.4122843E-2,1.7572418E-1,4.2685547E-1,7.2421837E-1,9.97328E-1,1.3336735E0,1.6326172E0,2.8530329E1,3.5776672E1,4.530318E1,-1.6916264E1,-1.5162875E1,-1.3674316E1,-1.2464386E1,-1.1580981E1,-1.0513752E1,-9.385615E0,-7.9590244E0,-6.727254E0,-5.478346E0,-3.1906772E-1,-2.0291996E-1,-1.0771911E-1,-4.0835952E-3,1.1489819E-1,2.2088577E-1,3.6643434E-1,4.7678867E-1,8.57403E0,1.0513691E1,1.2173143E1,1.4215946E1,1.6340122E1,1.8635956E1,2.044389E1,2.3456125E1,-4.492364E0,-3.7874799E0,-3.0363607E0,-2.3468285E0,-1.7043986E0,-1.0600173E0,-3.408218E-1,4.5290354E-1,1.2421012E0,1.9683502E0,2.6899202E0,3.511074E0,4.458992E0,5.35864E0,5.881888E0,6.849918E0],"split_indices":[2,2,2,2,2,2,2,2,2,2,2,2,2,2,2,2,2,2,2,2,2,2,2,2,2,2,2,2,0,0,0,0,0,0,0,0,0,0,0,0,0,2,2,2,2,2,2,2,2,0,0,0,0,0,0,0,0,0,0,0,0,0,0,0,0,0,0,0,0,0,0,0,0],"split_type":[0,0,0,0,0,0,0,0,0,0,0,0,0,0,0,0,0,0,0,0,0,0,0,0,0,0,0,0,0,0,0,0,0,0,0,0,0,0,0,0,0,0,0,0,0,0,0,0,0,0,0,0,0,0,0,0,0,0,0,0,0,0,0,0,0,0,0,0,0,0,0,0,0],"sum_hessian":[7.223E3,4.871E3,2.352E3,2.77E3,2.101E3,1.623E3,7.29E2,1.388E3,1.382E3,1.151E3,9.5E2,8.46E2,7.77E2,5.58E2,1.71E2,4.85E2,9.03E2,7.04E2,6.78E2,5.66E2,5.85E2,4.79E2,4.71E2,4.57E2,3.89E2,4.32E2,3.45E2,3.38E2,2.2E2,1.43E2,2.8E1,1.16E2,3.69E2,6.18E2,2.85E2,3.91E2,3.13E2,3.68E2,3.1E2,2.76E2,2.9E2,3.29E2,2.56E2,2.3E2,2.49E2,2.46E2,2.25E2,2.29E2,2.28E2,2.47E2,1.42E2,2.29E2,2.03E2,2.02E2,1.43E2,1.44E2,1.94E2,1.36E2,1.93E2,1.4E2,1.16E2,1.15E2,1.15E2,1.12E2,1.37E2,1.16E2,1.3E2,9.3E1,1.32E2,1.17E2,1.12E2,8.9E1,1.39E2],"tree_param":{"num_deleted":"0","num_feature":"6","num_nodes":"73","size_leaf_vector":"1"}},{"base_weights":[3.621526E-1,-8.7777405E1,1.9157016E2,-1.3626514E2,-1.9624842E1,1.3486124E2,3.3387903E2,-1.606348E2,-1.0967922E2,-4.7519367E1,1.7621922E1,9.2191124E1,1.840217E2,2.9685745E2,4.33598E2,-1.781878E2,-1.5055734E2,-1.2226502E2,-9.1771545E1,-6.1805107E1,-3.0887869E1,2.013692E0,3.4139267E1,7.084232E1,1.1432395E2,1.5975063E2,2.0924629E2,2.148884E1,2.6620035E1,3.276681E1,4.18447E1,-1.5261634E1,-1.3725074E1,-1.2456466E1,-1.125334E1,-1.0297716E1,-9.09984E0,-7.9623175E0,-6.760392E0,-6.981463E1,-5.357395E1,-3.8705658E1,-2.2511005E1,-6.1636415E0,1.0254481E1,2.479323E1,4.1741795E1,6.2211903E1,6.5584464E0,8.085098E0,1.0027823E1,1.1682962E1,1.3544326E1,1.527081E1,1.7598867E1,-6.0332856E0,-5.2987695E0,-4.5046973E0,-3.8549554E0,-3.33235E0,-2.7237215E0,-2.1516848E0,-1.5002133E0,-8.2336974E-1,-1.6139717E-1,4.9875927E-1,1.1375438E0,1.6585226E0,2.2216327E0,2.9182363E0,3.7285824E0,4.365625E0,5.2155366E0],"categories":[],"categories_nodes":[],"categories_segments":[],"categories_sizes":[],"default_left":[0,0,0,0,0,0,0,0,0,0,0,0,0,0,0,0,0,0,0,0,0,0,0,0,0,0,0,0,0,0,0,0,0,0,0,0,0,0,0,0,0,0,0,0,0,0,0,0,0,0,0,0,0,0,0,0,0,0,0,0,0,0,0,0,0,0,0,0,0,0,0,0,0],"id":23,"left_children":[1,3,5,7,9,11,13,15,17,19,21,23,25,27,29,31,33,35,37,39,41,43,45,47,49,51,53,-1,-1,-1,-1,-1,-1,-1,-1,-1,-1,-1,-1,55,57,59,61,63,65,67,69,71,-1,-1,-1,-1,-1,-1,-1,-1,-1,-1,-1,-1,-1,-1,-1,-1,-1,-1,-1,-1,-1,-1,-1,-1,-1],"loss_changes":[1.214089E8,1.6292128E7,1.8298504E7,1.848952E6,2.1317872E6,3.395966E6,2.259848E6,2.38684E5,3.00033E5,2.767875E5,2.2654319E5,4.044015E5,4.28806E5,3.92208E5,1.57402E5,1.2448E4,2.6982E4,2.979E4,2.3946E4,3.779425E4,3.47545E4,3.0589824E4,2.9304938E4,3.7869E4,4.97505E4,2.6239E4,3.0376E4,0E0,0E0,0E0,0E0,0E0,0E0,0E0,0E0,0E0,0E0,0E0,0E0,1.341625E3,1.92725E3,2.4285625E3,3.8629531E3,3.882005E3,3.513459E3,1.7702031E3,4.292875E3,2.2765E3,0E0,0E0,0E0,0E0,0E0,0E0,0E0,0E0,0E0,0E0,0E0,0E0,0E0,0E0,0E0,0E0,0E0,0E0,0E0,0E0,0E0,0E0,0E0,0E0,0E0],"parents":[2147483647,0,0,1,1,2,2,3,3,4,4,5,5,6,6,7,7,8,8,9,9,10,10,11,11,12,12,13,13,14,14,15,15,16,16,17,17,18,18,19,19,20,20,21,21,22,22,23,23,24,24,25,25,26,26,39,39,40,40,41,41,42,42,43,43,44,44,45,45,46,46,47,47],"right_children":[2,4,6,8,10,12,14,16,18,20,22,24,26,28,30,32,